/* Generated by Edge Impulse
 *
 * Permission is hereby granted, free of charge, to any person obtaining a copy
 * of this software and associated documentation files (the "Software"), to deal
 * in the Software without restriction, including without limitation the rights
 * to use, copy, modify, merge, publish, distribute, sublicense, and/or sell
 * copies of the Software, and to permit persons to whom the Software is
 * furnished to do so, subject to the following conditions:
 *
 * The above copyright notice and this permission notice shall be included in
 * all copies or substantial portions of the Software.
 *
 * THE SOFTWARE IS PROVIDED "AS IS", WITHOUT WARRANTY OF ANY KIND, EXPRESS OR
 * IMPLIED, INCLUDING BUT NOT LIMITED TO THE WARRANTIES OF MERCHANTABILITY,
 * FITNESS FOR A PARTICULAR PURPOSE AND NONINFRINGEMENT. IN NO EVENT SHALL THE
 * AUTHORS OR COPYRIGHT HOLDERS BE LIABLE FOR ANY CLAIM, DAMAGES OR OTHER
 * LIABILITY, WHETHER IN AN ACTION OF CONTRACT, TORT OR OTHERWISE, ARISING FROM,
 * OUT OF OR IN CONNECTION WITH THE SOFTWARE OR THE USE OR OTHER DEALINGS IN THE
 * SOFTWARE.
 */
// Generated on: 13.06.2022 21:58:55

#include <stdio.h>
#include <stdlib.h>
#include <vector>
#include "edge-impulse-sdk/tensorflow/lite/c/builtin_op_data.h"
#include "edge-impulse-sdk/tensorflow/lite/c/common.h"
#include "edge-impulse-sdk/tensorflow/lite/micro/micro_mutable_op_resolver.h"
#include "edge-impulse-sdk/porting/ei_classifier_porting.h"

#if EI_CLASSIFIER_PRINT_STATE
#if defined(__cplusplus) && EI_C_LINKAGE == 1
extern "C" {
    extern void ei_printf(const char *format, ...);
}
#else
extern void ei_printf(const char *format, ...);
#endif
#endif

#if defined __GNUC__
#define ALIGN(X) __attribute__((aligned(X)))
#elif defined _MSC_VER
#define ALIGN(X) __declspec(align(X))
#elif defined __TASKING__
#define ALIGN(X) __align(X)
#endif

using namespace tflite;
using namespace tflite::ops;
using namespace tflite::ops::micro;

namespace {

constexpr int kTensorArenaSize = 2497648;

#if defined(EI_CLASSIFIER_ALLOCATION_STATIC)
uint8_t tensor_arena[kTensorArenaSize] ALIGN(16);
#elif defined(EI_CLASSIFIER_ALLOCATION_STATIC_HIMAX)
#pragma Bss(".tensor_arena")
uint8_t tensor_arena[kTensorArenaSize] ALIGN(16);
#pragma Bss()
#elif defined(EI_CLASSIFIER_ALLOCATION_STATIC_HIMAX_GNU)
uint8_t tensor_arena[kTensorArenaSize] ALIGN(16) __attribute__((section(".tensor_arena")));
#else
#define EI_CLASSIFIER_ALLOCATION_HEAP 1
uint8_t* tensor_arena = NULL;
#endif

static uint8_t* tensor_boundary;
static uint8_t* current_location;

template <int SZ, class T> struct TfArray {
  int sz; T elem[SZ];
};
enum used_operators_e {
  OP_CONV_2D, OP_DEPTHWISE_CONV_2D, OP_PAD, OP_ADD, OP_SOFTMAX,  OP_LAST
};
struct TensorInfo_t { // subset of TfLiteTensor used for initialization from constant memory
  TfLiteAllocationType allocation_type;
  TfLiteType type;
  void* data;
  TfLiteIntArray* dims;
  size_t bytes;
};
struct NodeInfo_t { // subset of TfLiteNode used for initialization from constant memory
  struct TfLiteIntArray* inputs;
  struct TfLiteIntArray* outputs;
  void* builtin_data;
  used_operators_e used_op_index;
};

TfLiteContext ctx{};
TfLiteTensor tflTensors[71];
TfLiteEvalTensor tflEvalTensors[71];
TfLiteRegistration registrations[OP_LAST];
TfLiteNode tflNodes[27];

const TfArray<4, int> tensor_dimension0 = { 4, { 1,160,160,1 } };
const ALIGN(16) float tensor_data1[32] = { 0.0039789485745131969, 0.136575847864151, -0.004194122739136219, -0.016824886202812195, 0.010778455063700676, -0.024724684655666351, -0.0073938234709203243, 0.03582322970032692, -0.014321332797408104, -0.02476104162633419, -0.0083513408899307251, -0.019288113340735435, 0.0097306398674845695, 0.026901146396994591, -0.023150112479925156, 0.0041586533188819885, -0.019529987126588821, -0.012156090699136257, 0.074966549873352051, 0.014605654403567314, -0.011430360376834869, -0.020073253661394119, 0.11190979927778244, -0.027930725365877151, 0.042492669075727463, 0.0095351794734597206, 0.061937037855386734, 0.0040911589749157429, -0.016190344467759132, -0.0050861896015703678, 0.039642941206693649, 0.037016935646533966, };
const TfArray<1, int> tensor_dimension1 = { 1, { 32 } };
const ALIGN(16) int32_t tensor_data2[4*2] = { 
  0, 0, 
  0, 1, 
  0, 1, 
  0, 0, 
};
const TfArray<2, int> tensor_dimension2 = { 2, { 4,2 } };
const ALIGN(16) float tensor_data3[16] = { 0.079859748482704163, 0.18832051753997803, -0.039794750511646271, 0.10867492854595184, 1.344630241394043, 1.4160486459732056, 0.58390331268310547, 0.34433263540267944, 0.87831175327301025, 0.39948326349258423, 0.45957839488983154, 0.044707387685775757, 1.7720928192138672, 0.13539111614227295, 0.13520997762680054, 0.98276799917221069, };
const TfArray<1, int> tensor_dimension3 = { 1, { 16 } };
const ALIGN(16) float tensor_data4[16] = { 2.2606215476989746, -0.050601758062839508, 0.028443023562431335, 0.53988003730773926, -1.315868616104126, 0.40543380379676819, 1.7092523574829102, 1.0965524911880493, -0.020028591156005859, 0.13197970390319824, -0.4888211190700531, 0.57541525363922119, -0.052017331123352051, -0.27767583727836609, -0.088661983609199524, -0.75875210762023926, };
const TfArray<1, int> tensor_dimension4 = { 1, { 16 } };
const ALIGN(16) float tensor_data5[48] = { 0.500285804271698, -0.1201997846364975, -0.14751560986042023, 0.48910140991210938, 1.0237089395523071, 0.63775795698165894, -0.18256776034832001, 0.81030899286270142, 0.47353571653366089, 0.7180168628692627, 0.082155682146549225, 0.9588475227355957, 0.21897177398204803, 0.2790200412273407, -0.28098499774932861, 0.13895206153392792, 0.72009944915771484, 1.0250710248947144, 0.71585369110107422, -0.30224898457527161, 0.45194262266159058, -0.23783977329730988, -0.0040579801425337791, 0.72270572185516357, -0.16562092304229736, -0.44526386260986328, 0.54509443044662476, -0.02445644699037075, 0.85815459489822388, 1.0015337467193604, 0.72677546739578247, -0.016173435375094414, 0.16777703166007996, -0.044500920921564102, 0.70278984308242798, -0.0053268773481249809, 0.18559323251247406, -0.12347275018692017, 0.52310961484909058, 0.60708153247833252, 0.49257051944732666, 0.68254232406616211, 0.12176035344600677, -0.14467038214206696, 0.24436573684215546, 0.5449637770652771, 0.36473909020423889, -0.093041405081748962, };
const TfArray<1, int> tensor_dimension5 = { 1, { 48 } };
const ALIGN(16) float tensor_data6[48] = { 0.64354753494262695, 0.50827294588088989, 0.51447653770446777, 0.23704113066196442, -1.3882474899291992, 0.011931067332625389, 0.012802928686141968, 2.7271888256072998, -0.45586550235748291, 0.040459509938955307, 0.55404865741729736, 3.3511514663696289, 0.28911373019218445, 0.28939789533615112, 0.022134099155664444, 2.1304256916046143, -0.22323447465896606, 7.4450054168701172, -0.019084654748439789, 0.79905545711517334, 1.8179068565368652, 0.28692838549613953, 0.42028689384460449, -2.2339878082275391, 1.2757281064987183, 0.10358929634094238, 0.073259353637695312, 0.96811419725418091, 0.52696192264556885, -1.1477475166320801, -2.3855721950531006, 0.66881018877029419, 0.17573350667953491, 0.054914474487304688, -0.33359456062316895, 0.43360915780067444, -0.74467247724533081, 0.36895895004272461, 0.53881227970123291, 1.1892170906066895, -0.25977867841720581, 0.0078049488365650177, 0.51825958490371704, 0.27640253305435181, 0.28432044386863708, -0.062120705842971802, 0.21653288602828979, -0.17764788866043091, };
const TfArray<1, int> tensor_dimension6 = { 1, { 48 } };
const ALIGN(16) float tensor_data7[48] = { 0.59158378839492798, 0.83213835954666138, 0.9578012228012085, 0.17349989712238312, 0.4921952486038208, -0.4156307578086853, 0.81827116012573242, 0.98658311367034912, 0.57533591985702515, -0.15128092467784882, 0.77519488334655762, -0.49222111701965332, 0.93956226110458374, -0.41469234228134155, 0.39204573631286621, 1.0806678533554077, -0.13059358298778534, 0.40753814578056335, 0.099392011761665344, 0.57241731882095337, 0.70321947336196899, 0.74463176727294922, 0.18318217992782593, 1.1289639472961426, 0.80975848436355591, 0.57392925024032593, 1.0532419681549072, 0.45293399691581726, 0.80221229791641235, 0.67153006792068481, 0.2793009877204895, 0.40642449259757996, 0.26155933737754822, 0.36720046401023865, -0.080656394362449646, 0.0864153653383255, -0.55620646476745605, -0.12670451402664185, 0.63360953330993652, 0.53782153129577637, 0.84258967638015747, 0.47172224521636963, 0.80873727798461914, 0.87889277935028076, 0.7048761248588562, 0.70233786106109619, 0.5832332968711853, 0.81853401660919189, };
const TfArray<1, int> tensor_dimension7 = { 1, { 48 } };
const ALIGN(16) float tensor_data8[48] = { -0.23203152418136597, 1.8334248065948486, -1.2439483404159546, -0.37300503253936768, 0.29234564304351807, -0.33332613110542297, 1.0523285865783691, -1.8116440773010254, -0.29384815692901611, 0.008054688572883606, -0.88221108913421631, 0.065837651491165161, 0.82700800895690918, -0.42425036430358887, -1.2946085929870605, 2.6023154258728027, 1.2027510404586792, 0.32262000441551208, 0.019254170358181, -1.4426183700561523, -1.8006048202514648, -0.59519326686859131, 1.5243767499923706, -3.5954029560089111, -0.78117609024047852, -0.13596297800540924, 3.9161045551300049, -1.3374741077423096, 0.087839469313621521, -0.22154049575328827, -1.0628812313079834, 0.91926324367523193, 0.64377635717391968, -0.045353591442108154, 0.48060202598571777, -0.10545359551906586, 0.043833009898662567, -0.15686090290546417, 1.6315174102783203, -0.19656302034854889, 0.72600674629211426, -0.67341053485870361, 1.3479831218719482, 1.8177393674850464, -0.40270882844924927, 1.0401089191436768, 0.14643299579620361, -0.59034150838851929, };
const TfArray<1, int> tensor_dimension8 = { 1, { 48 } };
const ALIGN(16) float tensor_data9[48] = { 0.43740493059158325, -0.36235654354095459, 0.17464827001094818, -0.42587888240814209, 0.79091429710388184, -0.21753597259521484, 0.72083789110183716, -0.48963922262191772, 0.26508325338363647, 0.14909195899963379, 0.43595600128173828, 0.71096241474151611, 0.19864882528781891, -0.081003017723560333, 0.21440593898296356, 0.74168485403060913, -0.39459061622619629, 0.7854996919631958, 0.84738874435424805, 0.18876852095127106, -0.30221837759017944, 0.53123205900192261, -0.11760633438825607, 0.79024696350097656, 0.44139108061790466, 0.37817111611366272, 0.31040337681770325, -0.27178224921226501, 0.95400321483612061, -0.10073686391115189, 0.4207417368888855, -0.34809285402297974, -0.1223815381526947, 0.79146963357925415, -0.15225999057292938, 0.56059831380844116, 0.44140863418579102, 0.22611096501350403, 0.039884448051452637, 0.74097633361816406, 0.51902139186859131, 0.95755219459533691, -0.52056801319122314, 0.41446134448051453, 0.92459648847579956, -0.031431809067726135, 0.64972215890884399, 0.61172837018966675, };
const TfArray<1, int> tensor_dimension9 = { 1, { 48 } };
const ALIGN(16) float tensor_data10[48] = { 0.74322468042373657, 0.079790592193603516, 1.0396240949630737, 0.15491092205047607, 1.3725676536560059, -0.0095371007919311523, 2.1416211128234863, 0.098725005984306335, 0.67024809122085571, 2.0122838020324707, 0.42240309715270996, 1.9889559745788574, 0.0015133023262023926, 1.4701496362686157, 1.7023161649703979, 1.6974267959594727, 0.24672871828079224, 0.24437487125396729, 0.37676256895065308, 2.117743968963623, 0.092184096574783325, 0.99556934833526611, 0.28470867872238159, 1.7163138389587402, 0.80877435207366943, 2.3329713344573975, -0.024051487445831299, -0.0046493709087371826, -0.73216253519058228, 1.172533392906189, 1.5005801916122437, 0.10860338807106018, -0.093843579292297363, 0.14560720324516296, 0.22603058815002441, 1.1710920333862305, 0.60213220119476318, 1.7685580253601074, 0.4414898157119751, 1.0950167179107666, 1.3941216468811035, -0.022008508443832397, 0.27088120579719543, 0.84388715028762817, -0.057803049683570862, 0.30789074301719666, 2.1493725776672363, 1.4490334987640381, };
const TfArray<1, int> tensor_dimension10 = { 1, { 48 } };
const ALIGN(16) float tensor_data11[96] = { 0.30173677206039429, 0.80324363708496094, 0.13931795954704285, 0.34681972861289978, 0.64634895324707031, 0.90847378969192505, -0.021616261452436447, 0.32255584001541138, 0.91628921031951904, -0.10362468659877777, 0.88999873399734497, 0.51334375143051147, 0.31017610430717468, -0.017610331997275352, 0.53481811285018921, 0.11956118047237396, 0.61376631259918213, 0.64660352468490601, 0.0025487865786999464, 0.82970941066741943, 0.18052266538143158, 0.80151498317718506, -0.29009136557579041, 0.27527111768722534, -0.7133365273475647, 0.23936022818088531, 0.48952484130859375, 0.27057546377182007, 0.94777977466583252, 0.32407683134078979, 0.58476293087005615, 0.51830959320068359, 0.47805660963058472, 0.83709752559661865, 0.44377037882804871, 0.67419725656509399, 0.59649968147277832, 0.37297061085700989, 0.45607084035873413, 0.4497661292552948, 0.9994509220123291, 0.299090176820755, 0.42730659246444702, 0.20470567047595978, 0.41160127520561218, 0.85199576616287231, 0.69451713562011719, 0.75733107328414917, 0.3093511164188385, -0.16130775213241577, 0.33074206113815308, 0.67888569831848145, 0.46640071272850037, -0.43912813067436218, 0.69661641120910645, 0.11958679556846619, 0.36909759044647217, 0.87281560897827148, 0.1421167254447937, 0.25408387184143066, 0.45097723603248596, 0.88903301954269409, 0.5881531834602356, -0.078136883676052094, 0.910633385181427, 0.92202973365783691, 0.36525654792785645, 0.60011959075927734, 0.70714676380157471, 0.59877938032150269, 0.46431529521942139, 0.25858822464942932, -0.59891366958618164, 0.62905591726303101, 0.33549106121063232, 0.68646121025085449, 0.014533071778714657, 0.78004175424575806, 0.52150863409042358, 0.93766117095947266, 0.46233505010604858, 0.19827975332736969, 0.46799641847610474, 0.90337282419204712, -0.0036066316533833742, 0.66617733240127563, 0.6548648476600647, 0.45157632231712341, -0.16467668116092682, 0.54422897100448608, 0.16992561519145966, 0.81942307949066162, 0.50003236532211304, 0.3518235981464386, 0.64595085382461548, 0.64674639701843262, };
const TfArray<1, int> tensor_dimension11 = { 1, { 96 } };
const ALIGN(16) float tensor_data12[96] = { 1.0086371898651123, 0.47112596035003662, -1.0767005681991577, 1.3538818359375, -0.35857629776000977, 0.53120970726013184, 0.07130095362663269, -0.20644994080066681, 0.56664478778839111, -0.89895761013031006, -0.39159473776817322, -0.082176625728607178, 0.70520246028900146, -0.66475534439086914, -0.78260695934295654, -1.2349257469177246, -0.19508874416351318, 0.090652137994766235, -1.4410765171051025, -0.64359056949615479, -0.53409409523010254, -0.070882745087146759, -0.74319684505462646, -0.49513542652130127, 0.10357610881328583, 1.1642959117889404, -2.3544979095458984, -0.53907620906829834, 1.6951447725296021, -0.41970771551132202, 0.49419432878494263, -0.33721408247947693, 1.7573291063308716, -0.45360094308853149, -0.17505151033401489, 0.57728922367095947, 0.36893826723098755, 1.0122376680374146, -0.25070077180862427, 0.91418886184692383, 1.8396533727645874, 1.1633871793746948, -0.89005434513092041, 0.61068183183670044, -0.14286819100379944, 0.62419819831848145, 1.2403693199157715, 0.76026606559753418, -0.92903220653533936, -0.035439059138298035, -1.164717435836792, -0.74696719646453857, -0.2936214804649353, -0.94498562812805176, -0.61753779649734497, 0.81436634063720703, -0.053771995007991791, 1.5553840398788452, -0.16737845540046692, 0.25167202949523926, -0.0014852583408355713, 0.80749893188476562, -0.18344584107398987, 0.76817876100540161, 2.4904520511627197, -0.21480298042297363, 1.6132923364639282, 1.6999800205230713, -0.35275495052337646, 0.33760994672775269, 1.1434946060180664, -0.0023999512195587158, -0.039704382419586182, 0.38985151052474976, -0.51685380935668945, 0.46681195497512817, 1.2156968116760254, 1.2304559946060181, 1.4624205827713013, 2.2415893077850342, 1.3183205127716064, -0.40019947290420532, 1.5448962450027466, 2.7517008781433105, -0.053542405366897583, -0.30615168809890747, 1.320734977722168, -1.6235486268997192, 1.0542366504669189, -0.20023757219314575, -1.1200295686721802, 0.19331134855747223, -0.48224329948425293, -0.43581095337867737, 1.9122493267059326, -0.95043402910232544, };
const TfArray<1, int> tensor_dimension12 = { 1, { 96 } };
const ALIGN(16) float tensor_data13[96] = { 0.78530186414718628, 0.40796363353729248, 0.075337141752243042, -0.19888819754123688, 0.77983218431472778, 0.80433642864227295, 0.90708780288696289, 0.23041045665740967, -0.045493625104427338, 0.69822990894317627, 0.20832845568656921, -0.54197573661804199, 0.51081615686416626, 0.46488738059997559, 0.001443980960175395, -0.035137735307216644, 0.66722762584686279, 0.71817177534103394, 0.014997981488704681, 0.020501749590039253, 0.61246699094772339, 0.86070084571838379, 0.8454817533493042, -0.29107710719108582, -0.60238903760910034, -0.06760852038860321, 0.86473304033279419, 0.03211645781993866, 0.25744768977165222, 0.19611889123916626, 0.86225718259811401, -0.27831083536148071, 0.83999466896057129, 0.48375815153121948, 0.639312744140625, -0.61014628410339355, 0.092380143702030182, -0.59883326292037964, 0.06403716653585434, 0.28493323922157288, 0.36521923542022705, 0.2651035487651825, 0.30812743306159973, -0.16387508809566498, 0.2747531533241272, 0.33006688952445984, 0.58354073762893677, 0.60765403509140015, 0.58651202917098999, 0.49055853486061096, 0.78815388679504395, 0.30093199014663696, -0.35141006112098694, 0.29244258999824524, 0.19403976202011108, 0.40914076566696167, 0.34674742817878723, 0.41091790795326233, 0.71113532781600952, 0.18237088620662689, -0.23222255706787109, 0.68656110763549805, 0.56947201490402222, 0.55974608659744263, 0.54559969902038574, 0.73463946580886841, -0.65125393867492676, 0.35141322016716003, 0.6142650842666626, -0.17902758717536926, 0.68710750341415405, 0.18222877383232117, 0.35408684611320496, 0.41603860259056091, 0.58998292684555054, 0.25346022844314575, -0.06669057160615921, 0.34100720286369324, 0.39941519498825073, 0.48533123731613159, 0.41827470064163208, 0.42081525921821594, 0.80060678720474243, 0.057675603777170181, 0.45420855283737183, 0.53977012634277344, 0.10336076468229294, -0.30508923530578613, 0.99720817804336548, -0.10782358050346375, 0.12961037456989288, -0.28400611877441406, 0.90802747011184692, 0.43294483423233032, 0.057419158518314362, -0.059028882533311844, };
const TfArray<1, int> tensor_dimension13 = { 1, { 96 } };
const ALIGN(16) float tensor_data14[96] = { -0.78026849031448364, -0.11958570778369904, -0.27899408340454102, -0.87880676984786987, 0.57817834615707397, 1.5509822368621826, 0.10843563079833984, -0.72461497783660889, -0.25673925876617432, -0.18191610276699066, 0.71548980474472046, -0.65197736024856567, -0.17154417932033539, 1.114783763885498, 0.93844974040985107, -0.60237878561019897, 2.1614184379577637, 0.091268114745616913, -0.69684720039367676, 0.10969448089599609, 0.10099219530820847, -0.17157229781150818, -0.23037858307361603, -0.29290693998336792, 0.41558617353439331, -0.77794981002807617, 0.32256036996841431, -0.39677810668945312, -0.029628634452819824, -0.64148849248886108, -1.3918821811676025, 0.098994821310043335, 1.8927688598632812, 0.4653548002243042, 0.23973582684993744, 0.021812736988067627, 0.10988633334636688, -0.45815622806549072, -0.037454932928085327, 1.322293758392334, -0.29081204533576965, 0.45068782567977905, 1.1176588535308838, -0.47369095683097839, 1.0264614820480347, 1.0823473930358887, 0.16307017207145691, 1.1953601837158203, -0.73580306768417358, 0.6890825629234314, 1.6950482130050659, -0.37869623303413391, -0.073328167200088501, 0.21636767685413361, -0.035895764827728271, 1.6397585868835449, 0.037585407495498657, -0.071920067071914673, 2.037010669708252, 0.39850834012031555, 0.89986133575439453, 1.8674107789993286, 1.1273216009140015, -0.54290670156478882, 0.12191221863031387, -0.30801063776016235, -0.63501858711242676, 0.32684201002120972, -1.4530802965164185, -0.36480540037155151, 0.96792292594909668, -0.16472968459129333, 0.78786581754684448, -0.47805845737457275, -0.30095428228378296, 1.113675594329834, 0.3184533417224884, -0.11866632848978043, 1.4589142799377441, -0.84551143646240234, -0.055889040231704712, 1.4659630060195923, 0.53396332263946533, 0.32466220855712891, 0.98052018880844116, -0.23505194485187531, -0.47531330585479736, -0.68077564239501953, -0.21840643882751465, -1.0732896327972412, 1.0780932903289795, 0.54422098398208618, -0.87341374158859253, 0.19470745325088501, -0.50927668809890747, -0.70048028230667114, };
const TfArray<1, int> tensor_dimension14 = { 1, { 96 } };
const ALIGN(16) float tensor_data15[96] = { 0.23255211114883423, -0.023781741037964821, 0.70355266332626343, 0.80809760093688965, 0.62409853935241699, -0.4022427499294281, 0.57514697313308716, -0.24890725314617157, -0.37648960947990417, -0.15105640888214111, 0.60625612735748291, -0.46044895052909851, 0.52365845441818237, 0.56710201501846313, 0.28096926212310791, 0.35858234763145447, -0.12939731776714325, -0.070625774562358856, -0.34508347511291504, 0.61635589599609375, 0.48238667845726013, -0.17173178493976593, 0.3728850781917572, -0.15222367644309998, -0.2187056690454483, 0.60870492458343506, 0.27558639645576477, 0.30848681926727295, 0.79049670696258545, 0.41957330703735352, 0.51664721965789795, 0.21968965232372284, 0.33453649282455444, 0.59716647863388062, 0.62442761659622192, 0.49606022238731384, -0.075895287096500397, 0.42932933568954468, 0.38854116201400757, -0.56801670789718628, -0.08913923054933548, 0.2940986156463623, -0.024817904457449913, 0.28867042064666748, -0.22597247362136841, 0.10024432837963104, -0.26809233427047729, 0.12962687015533447, -0.63903003931045532, 0.22798579931259155, 0.21624892950057983, -0.49731191992759705, 0.74910569190979004, -0.19008135795593262, 0.33178317546844482, 0.20841006934642792, 0.26583662629127502, 0.42737877368927002, -0.14771081507205963, -0.29272416234016418, 0.038395240902900696, 0.19193005561828613, 0.078957289457321167, 0.6241031289100647, 0.68735009431838989, 0.42620310187339783, 0.37680026888847351, 0.75738883018493652, 0.66798371076583862, -0.16035965085029602, 0.52114230394363403, 0.701468825340271, 0.48573336005210876, -0.29239636659622192, 0.69925570487976074, 0.86478215456008911, 0.1765911877155304, -0.64429891109466553, 0.12652330100536346, 0.27030178904533386, 0.90998315811157227, 0.27174347639083862, -0.12550987303256989, -0.3850848376750946, 0.1861756294965744, 0.14167040586471558, 0.2677808403968811, -0.38918313384056091, 0.5860145092010498, -0.076866254210472107, 0.619087815284729, 0.20960657298564911, -0.0019579501822590828, -0.39691489934921265, -0.08153032511472702, 0.25690674781799316, };
const TfArray<1, int> tensor_dimension15 = { 1, { 96 } };
const ALIGN(16) float tensor_data16[16*3*3*1] = { 
  /* [0][0][][] */ -5.9913334846496582, -7.7039604187011719, -2.0595390796661377, 
  /* [0][1][][] */ 4.7553243637084961, -2.5566627979278564, 1.2380741834640503, 
  /* [0][2][][] */ 2.2947077751159668, 9.0285091400146484, 1.4270291328430176, 
  /* [1][0][][] */ 37.085346221923828, -33.373931884765625, -3.653968334197998, 
  /* [1][1][][] */ -44.766178131103516, 36.645271301269531, 8.2196226119995117, 
  /* [1][2][][] */ 4.7717142105102539, -0.64455914497375488, -4.6121573448181152, 
  /* [2][0][][] */ -2.0253360271453857, -0.18997164070606232, -4.1426715850830078, 
  /* [2][1][][] */ 3.1493334770202637, 8.3089971542358398, 11.080087661743164, 
  /* [2][2][][] */ -1.0217300653457642, -8.1584682464599609, -6.8533802032470703, 
  /* [3][0][][] */ 6.0453081130981445, 6.3222055435180664, 2.9391145706176758, 
  /* [3][1][][] */ 0.12645433843135834, -1.0291285514831543, -0.68231362104415894, 
  /* [3][2][][] */ -5.0054140090942383, -6.2884039878845215, -2.1354334354400635, 
  /* [4][0][][] */ 0.096503883600234985, -0.28917533159255981, 0.014552664011716843, 
  /* [4][1][][] */ 0.073310874402523041, -0.7286267876625061, 0.0064616221934556961, 
  /* [4][2][][] */ 0.047337118536233902, -0.47969445586204529, -0.058287575840950012, 
  /* [5][0][][] */ -0.32849836349487305, 0.15381509065628052, -0.067390583455562592, 
  /* [5][1][][] */ -0.83655846118927002, 0.15105725824832916, -0.038134798407554626, 
  /* [5][2][][] */ -0.59450739622116089, 0.13465842604637146, -0.02829509973526001, 
  /* [6][0][][] */ -0.70685982704162598, 3.513878345489502, 5.6326375007629395, 
  /* [6][1][][] */ -2.2105801105499268, 2.4714770317077637, -0.67131650447845459, 
  /* [6][2][][] */ -1.5804975032806396, -2.2599866390228271, -3.8805947303771973, 
  /* [7][0][][] */ 0.22129106521606445, 0.16806897521018982, -0.076122604310512543, 
  /* [7][1][][] */ 0.82293623685836792, 0.48409295082092285, 0.0088463742285966873, 
  /* [7][2][][] */ 0.22293014824390411, 0.051763389259576797, -0.095247469842433929, 
  /* [8][0][][] */ -1.1169354915618896, -1.6297882795333862, 2.79998779296875, 
  /* [8][1][][] */ -2.8843755722045898, -4.6504635810852051, 6.7815418243408203, 
  /* [8][2][][] */ -1.4045569896697998, -3.2798604965209961, 5.125340461730957, 
  /* [9][0][][] */ -0.28007355332374573, 0.48697492480278015, -0.1456674188375473, 
  /* [9][1][][] */ -0.24969661235809326, 1.3204208612442017, -0.14051820337772369, 
  /* [9][2][][] */ -0.14935830235481262, 0.95986330509185791, -0.062564581632614136, 
  /* [10][0][][] */ 3.6236648559570312, 12.78310489654541, 1.7544311285018921, 
  /* [10][1][][] */ -5.3379392623901367, -18.50776481628418, -4.265082836151123, 
  /* [10][2][][] */ 1.7587013244628906, 5.8584327697753906, 2.5924618244171143, 
  /* [11][0][][] */ 2.1931443214416504, -5.7874875068664551, 2.950944185256958, 
  /* [11][1][][] */ 19.943672180175781, -28.911956787109375, 10.741318702697754, 
  /* [11][2][][] */ -26.239347457885742, 39.212455749511719, -14.374239921569824, 
  /* [12][0][][] */ -4.2964801788330078, 5.125089168548584, -1.0426051616668701, 
  /* [12][1][][] */ -13.314599990844727, 11.959172248840332, 0.58839297294616699, 
  /* [12][2][][] */ -8.2079267501831055, 8.2836904525756836, 0.52001655101776123, 
  /* [13][0][][] */ 0.33332559466362, 0.074905037879943848, -0.075674563646316528, 
  /* [13][1][][] */ 0.52048194408416748, 0.45060184597969055, -0.028704091906547546, 
  /* [13][2][][] */ 0.29561981558799744, 0.49243757128715515, 0.20715288817882538, 
  /* [14][0][][] */ -8.8100872039794922, -8.0287990570068359, 13.78549861907959, 
  /* [14][1][][] */ 12.745877265930176, 28.454689025878906, -36.853477478027344, 
  /* [14][2][][] */ -4.7459697723388672, -20.339443206787109, 23.290073394775391, 
  /* [15][0][][] */ -0.71415168046951294, -0.14464905858039856, 0.18854087591171265, 
  /* [15][1][][] */ -1.2100063562393188, -1.1902717351913452, 0.13185165822505951, 
  /* [15][2][][] */ -0.23138180375099182, -0.73558938503265381, -0.10474051535129547, 
};
const TfArray<4, int> tensor_dimension16 = { 4, { 16,3,3,1 } };
const ALIGN(16) float tensor_data17[8*1*1*16] = { 
  /* [0][0][][] */ -0.11706558614969254,-0.1445932537317276,-0.15923404693603516,-0.52323657274246216,-0.22100852429866791,-0.33328813314437866,0.15992985665798187,-0.12997911870479584,0.2866654098033905,0.069935314357280731,-0.28795120120048523,-0.055831626057624817,0.89872843027114868,1.0986872911453247,-0.18897534906864166,-0.87498682737350464, 
  /* [1][0][][] */ 1.204454779624939,-0.60070538520812988,-0.44251370429992676,0.18492075800895691,-0.42880314588546753,0.67777520418167114,-0.63322317600250244,-0.40135318040847778,-0.34136950969696045,0.81668227910995483,-0.3714447021484375,-0.54109746217727661,-0.087643332779407501,0.050382055342197418,-0.57300245761871338,-0.15037031471729279, 
  /* [2][0][][] */ -0.31143999099731445,-0.67251169681549072,0.31259697675704956,0.28287339210510254,0.32053461670875549,-0.45781493186950684,-0.53708577156066895,-0.15511222183704376,0.26119285821914673,-0.68420583009719849,0.18908099830150604,-0.9036860466003418,0.36052101850509644,-0.14916826784610748,-0.52146667242050171,0.16587702929973602, 
  /* [3][0][][] */ 0.45574161410331726,0.083190910518169403,0.15694734454154968,0.079615853726863861,-0.15025904774665833,0.77312225103378296,-0.53667956590652466,-0.24989181756973267,1.3136099576950073,0.46978038549423218,0.10012178868055344,0.17590807378292084,0.02541353739798069,-0.16890674829483032,0.091390654444694519,0.2440265566110611, 
  /* [4][0][][] */ -0.86240196228027344,-0.30000218749046326,-0.24605381488800049,-1.2201639413833618,-0.040590904653072357,0.30960914492607117,0.47625899314880371,-1.1948518753051758,0.36984968185424805,-0.18071994185447693,-0.4302232563495636,-0.31529384851455688,-1.0723327398300171,0.30823692679405212,-0.37429350614547729,-0.17630244791507721, 
  /* [5][0][][] */ 0.63813239336013794,0.336610347032547,0.51019895076751709,-0.16009692847728729,0.33267718553543091,-0.33302721381187439,-0.85979801416397095,-0.86997371912002563,-0.11714642494916916,-0.53580617904663086,0.39765116572380066,0.33861854672431946,-0.38471859693527222,0.34884166717529297,0.44292697310447693,-0.29560607671737671, 
  /* [6][0][][] */ 0.75510406494140625,0.30511340498924255,-0.88547879457473755,-0.59796607494354248,0.15387262403964996,-0.49670332670211792,0.019070612266659737,-0.67449653148651123,-0.28293821215629578,0.13876290619373322,-0.87419593334197998,0.68999844789505005,0.65972030162811279,-0.71029877662658691,0.079477213323116302,0.48662245273590088, 
  /* [7][0][][] */ -1.4027409553527832,-0.043187912553548813,1.0573285818099976,-0.22587479650974274,-0.70529848337173462,0.044921558350324631,-0.015911145135760307,-0.56621992588043213,-0.62145352363586426,0.66851347684860229,0.95902091264724731,-0.37000057101249695,0.63298451900482178,-0.29197528958320618,0.31449425220489502,0.31430613994598389, 
};
const TfArray<4, int> tensor_dimension17 = { 4, { 8,1,1,16 } };
const ALIGN(16) float tensor_data18[48*1*1*8] = { 
  /* [0][0][][] */ -0.14534233510494232,0.12112032622098923,0.00089178106281906366,-0.087625786662101746,-0.30776700377464294,-0.14314930140972137,-0.55666995048522949,0.15190811455249786, 
  /* [1][0][][] */ 0.38624325394630432,-0.31988486647605896,-0.20102286338806152,-0.24548906087875366,0.58840620517730713,-0.36269751191139221,0.50659090280532837,0.043548215180635452, 
  /* [2][0][][] */ -0.31895831227302551,0.36065599322319031,-0.14982913434505463,-0.37127372622489929,0.11049601435661316,-0.094813086092472076,-0.087972536683082581,0.12037070840597153, 
  /* [3][0][][] */ 0.15523828566074371,0.088883630931377411,0.24380958080291748,-0.006215785164386034,0.28931078314781189,0.31092104315757751,0.32977792620658875,-0.040227565914392471, 
  /* [4][0][][] */ -0.05731620267033577,-0.076473653316497803,0.035661421716213226,0.0011085860896855593,-0.042488913983106613,-0.07814440131187439,-0.0055288271978497505,-0.012851502746343613, 
  /* [5][0][][] */ 0.39325505495071411,-0.122724749147892,0.24108053743839264,0.20327122509479523,-0.23517322540283203,-0.029361842200160027,-0.028683990240097046,-0.07454187422990799, 
  /* [6][0][][] */ 0.19133815169334412,0.19091634452342987,0.69109070301055908,-0.15413562953472137,0.26193046569824219,-0.19933684170246124,-0.22645606100559235,0.16055561602115631, 
  /* [7][0][][] */ 0.063992328941822052,0.037025332450866699,-0.3431699275970459,-0.081617660820484161,-0.090405896306037903,0.27698168158531189,0.2481701672077179,-0.16705341637134552, 
  /* [8][0][][] */ -0.039058241993188858,0.40193340182304382,-0.085116647183895111,0.00089673482580110431,0.19924215972423553,0.3177947998046875,0.15385110676288605,0.12428100407123566, 
  /* [9][0][][] */ -0.083073623478412628,0.70214951038360596,-0.30982044339179993,0.41995561122894287,0.14293913543224335,-0.65728622674942017,0.12093906849622726,0.66117197275161743, 
  /* [10][0][][] */ -0.0034299879334867001,-0.43435823917388916,-0.016537424176931381,-0.094758316874504089,-0.2767372727394104,-0.41022789478302002,-0.20577666163444519,-0.25162699818611145, 
  /* [11][0][][] */ -0.3463687002658844,-0.2135806530714035,0.28891894221305847,0.14171986281871796,-0.015995308756828308,-0.15887594223022461,0.27120137214660645,0.18589207530021667, 
  /* [12][0][][] */ -0.073455236852169037,0.09199891984462738,-0.32825323939323425,0.20044690370559692,0.080425232648849487,-0.13370275497436523,-0.15661466121673584,0.22486859560012817, 
  /* [13][0][][] */ 0.38379174470901489,-0.47934219241142273,0.35695874691009521,0.30412408709526062,0.049544796347618103,0.13904382288455963,0.14308169484138489,-0.24008417129516602, 
  /* [14][0][][] */ -0.043931581079959869,0.33716797828674316,-0.12585620582103729,-0.41848963499069214,-0.041148554533720016,-0.27235597372055054,-0.084952004253864288,-0.19124867022037506, 
  /* [15][0][][] */ 0.12392785400152206,0.32998651266098022,0.086112581193447113,-0.021936763077974319,0.10845102369785309,-0.19136950373649597,0.32046183943748474,-0.38293817639350891, 
  /* [16][0][][] */ -0.25777509808540344,-0.30606076121330261,-0.15573364496231079,0.22643804550170898,-0.11959404498338699,0.065117649734020233,-0.0038182216230779886,0.17051248252391815, 
  /* [17][0][][] */ -0.012352908030152321,-0.061563115566968918,-0.06695915013551712,0.051201473921537399,-0.02921704389154911,0.047151200473308563,-0.024431128054857254,0.047686781734228134, 
  /* [18][0][][] */ -0.28284835815429688,-0.15277871489524841,-0.1060754731297493,0.22413001954555511,-0.036766532808542252,0.18828482925891876,-0.029274405911564827,0.31644165515899658, 
  /* [19][0][][] */ 0.1662260890007019,-0.46778246760368347,0.318947434425354,-0.42809471487998962,0.02921525202691555,-0.22327832877635956,0.1340971440076828,-0.08191448450088501, 
  /* [20][0][][] */ -0.046061880886554718,0.27565982937812805,0.15112443268299103,0.061603792011737823,0.14056214690208435,0.47981420159339905,0.33509111404418945,-0.086607478559017181, 
  /* [21][0][][] */ 0.058157745748758316,0.20079511404037476,0.088634803891181946,-0.058740943670272827,0.082121238112449646,-0.12037242203950882,0.17254702746868134,-0.2285846620798111, 
  /* [22][0][][] */ 0.1217605248093605,0.081682361662387848,0.51838207244873047,0.063330106437206268,-0.014313965104520321,0.61474621295928955,0.15560634434223175,-0.19527015089988708, 
  /* [23][0][][] */ -0.3357950747013092,-0.27907130122184753,0.10737092792987823,-0.23619692027568817,0.27409923076629639,0.37323790788650513,-0.18230818212032318,-0.45587816834449768, 
  /* [24][0][][] */ -0.45505881309509277,-0.40883633494377136,0.18117912113666534,-0.39756959676742554,0.5547453761100769,0.54866665601730347,-0.21089082956314087,-0.54737985134124756, 
  /* [25][0][][] */ 1.0746089220046997,0.13405489921569824,-0.48822179436683655,-0.15466052293777466,0.13963960111141205,0.2473418116569519,-0.52034348249435425,-0.11114714294672012, 
  /* [26][0][][] */ -0.40207350254058838,-0.091368801891803741,-0.40820255875587463,-0.059189595282077789,-0.15397609770298004,-0.10500755906105042,0.076074115931987762,-0.018411315977573395, 
  /* [27][0][][] */ 0.81571280956268311,0.33716514706611633,-0.014529858715832233,-0.65125513076782227,-1.3076024055480957,-0.21468739211559296,0.89053052663803101,0.99131327867507935, 
  /* [28][0][][] */ -0.25859737396240234,-0.22481140494346619,0.0010058438638225198,0.10369548946619034,-0.17703576385974884,-0.21703185141086578,0.019927540794014931,0.024380696937441826, 
  /* [29][0][][] */ 0.064503856003284454,0.063103832304477692,0.021835960447788239,-0.07103361189365387,0.013765488751232624,0.016244648024439812,-0.037177938967943192,-0.057756595313549042, 
  /* [30][0][][] */ -0.28125402331352234,-0.28863456845283508,0.1064215824007988,-0.21011973917484283,0.22215613722801208,0.3437938392162323,-0.14103281497955322,-0.42282199859619141, 
  /* [31][0][][] */ 0.34041336178779602,0.35067051649093628,-0.02731689065694809,0.9465828537940979,0.07257629930973053,-0.4871278703212738,0.070907533168792725,0.12889963388442993, 
  /* [32][0][][] */ -0.15314066410064697,0.53619331121444702,-0.030589351430535316,0.16061729192733765,0.083329916000366211,0.27622309327125549,-0.068521410226821899,0.21136088669300079, 
  /* [33][0][][] */ -0.17382027208805084,0.48493975400924683,-0.31450533866882324,0.091233812272548676,0.096585065126419067,-0.13384468853473663,-0.085876986384391785,0.0044954433105885983, 
  /* [34][0][][] */ -0.37573471665382385,-0.31720775365829468,-0.13993138074874878,0.31350800395011902,-0.025255078449845314,0.020482541993260384,0.085729040205478668,0.35051053762435913, 
  /* [35][0][][] */ -0.16461428999900818,0.45643529295921326,-0.11436069011688232,-0.021131925284862518,0.2489827573299408,0.39717966318130493,0.16812625527381897,0.248732790350914, 
  /* [36][0][][] */ 0.30092582106590271,0.15475641191005707,-0.034828580915927887,-0.28148627281188965,-0.65639579296112061,-0.18062044680118561,0.50403875112533569,0.53752589225769043, 
  /* [37][0][][] */ -0.41116300225257874,0.78794759511947632,0.21905724704265594,0.17290090024471283,-0.8148224949836731,0.66369873285293579,-0.11336011439561844,-0.73580139875411987, 
  /* [38][0][][] */ 0.11417257040739059,0.14487136900424957,0.079374849796295166,0.0682111456990242,0.42513799667358398,0.25389817357063293,0.37794223427772522,0.17100170254707336, 
  /* [39][0][][] */ -0.11085772514343262,-0.32342371344566345,0.19814735651016235,-0.11778230220079422,0.049356620758771896,0.18253485858440399,-0.4694746732711792,0.60597896575927734, 
  /* [40][0][][] */ -0.24176397919654846,-0.20511592924594879,-0.20750454068183899,0.46972474455833435,-0.12538065016269684,0.022652620449662209,0.074823558330535889,0.22225919365882874, 
  /* [41][0][][] */ 0.38183477520942688,0.036130495369434357,0.17229020595550537,0.3247758150100708,-0.13355597853660583,-0.049682203680276871,-0.013687382452189922,-0.097435690462589264, 
  /* [42][0][][] */ -0.15975460410118103,0.024122927337884903,-0.2438664585351944,-0.39936926960945129,0.15874089300632477,-0.36478126049041748,0.025956751778721809,0.26388958096504211, 
  /* [43][0][][] */ 0.0976075679063797,-0.052649326622486115,0.38096773624420166,-0.0018763584084808826,0.15254570543766022,0.57418727874755859,0.45811581611633301,0.026016019284725189, 
  /* [44][0][][] */ -0.15282018482685089,-0.10411668568849564,-0.31933194398880005,0.58171343803405762,0.23783622682094574,0.052530515938997269,-0.16167356073856354,-0.16277837753295898, 
  /* [45][0][][] */ 0.12435678392648697,0.26262512803077698,0.21192863583564758,-0.2737332284450531,0.11694364994764328,-0.11286831647157669,0.046633943915367126,-0.23596490919589996, 
  /* [46][0][][] */ -0.085808321833610535,-0.32632207870483398,-0.093512050807476044,0.073301717638969421,-0.024699777364730835,0.097467213869094849,-0.16676950454711914,0.3062756359577179, 
  /* [47][0][][] */ 0.12262402474880219,0.12780509889125824,0.40633797645568848,0.02625708281993866,0.23738306760787964,0.36850595474243164,0.37685379385948181,-0.016908468678593636, 
};
const TfArray<4, int> tensor_dimension18 = { 4, { 48,1,1,8 } };
const ALIGN(16) float tensor_data19[8*1*1*48] = { 
  /* [0][0][][] */ -0.41790661215782166,-0.092535622417926788,0.30716988444328308,0.11317243427038193,-0.32886579632759094,-0.11847337335348129,0.11078477650880814,0.078419767320156097,-0.43549740314483643,-0.048450425267219543,-0.6143684983253479,-0.57126587629318237,-0.25491902232170105,-0.613444983959198,-0.094767332077026367,-0.30526557564735413,0.42933735251426697,-0.39578884840011597,0.39590570330619812,0.40501055121421814,-0.1403033584356308,0.31651997566223145,-0.37558940052986145,0.10577789694070816,-0.023160243406891823,-0.3908991813659668,0.536865234375,-0.14740078151226044,-0.047291792929172516,-0.16423781216144562,0.18768715858459473,0.11486718058586121,0.7744782567024231,0.31860598921775818,0.3709433376789093,-1.2342751026153564,0.187282994389534,-0.0036321175284683704,-0.21821720898151398,-0.33224254846572876,-0.001832654932513833,-0.15855337679386139,0.42246377468109131,0.48350593447685242,0.34559494256973267,0.060957327485084534,0.26545220613479614,0.022127842530608177, 
  /* [1][0][][] */ -0.0055893124081194401,0.22193072736263275,0.37615638971328735,-0.13902346789836884,-0.062274213880300522,0.28008905053138733,-0.29597687721252441,-0.19686749577522278,0.0092991180717945099,0.15635399520397186,-0.09537118673324585,-0.5714765191078186,0.049017813056707382,0.5377163290977478,-0.087287053465843201,0.35916751623153687,-0.12701135873794556,0.13594640791416168,-0.14278042316436768,-0.35384836792945862,-0.0040629785507917404,-0.4549134373664856,-0.19990551471710205,0.16963069140911102,-0.47759771347045898,-0.089729160070419312,-0.0049563180655241013,-0.65977132320404053,-0.16564184427261353,-0.077663905918598175,0.22192618250846863,-0.32796281576156616,0.26583564281463623,0.51680654287338257,-0.29948776960372925,0.050403937697410583,0.7534477710723877,-0.13095243275165558,-0.011697208508849144,0.27281609177589417,-0.25364091992378235,0.25014963746070862,-0.45528736710548401,-0.13308407366275787,0.65755349397659302,-0.084083855152130127,-0.20992138981819153,-0.11805227398872375, 
  /* [2][0][][] */ -0.011237400583922863,-0.10934418439865112,-0.33418935537338257,0.095760911703109741,-0.0060168788768351078,0.26357534527778625,0.1294037252664566,-0.0069942274130880833,0.018102563917636871,0.24775081872940063,-0.016281569376587868,0.1264835000038147,0.3526880145072937,-0.49384170770645142,0.080724231898784637,-0.32074266672134399,0.1801859587430954,-0.49252018332481384,0.12619772553443909,0.16914446651935577,-0.16571563482284546,0.25257381796836853,-0.040352120995521545,0.1744377613067627,-0.13658463954925537,0.32217034697532654,-0.089357040822505951,-0.36448538303375244,0.088964790105819702,-0.014265703037381172,0.14580674469470978,-0.38258111476898193,-0.24514003098011017,-0.43971836566925049,0.1546059250831604,-0.10027268528938293,0.57535433769226074,0.15188606083393097,-0.089516721665859222,-0.35617917776107788,-0.064187265932559967,0.17019431293010712,0.48146161437034607,0.2057337611913681,0.7007681131362915,0.12048625200986862,0.096048213541507721,0.1599959135055542, 
  /* [3][0][][] */ -0.00846128910779953,0.13010668754577637,-0.45277383923530579,0.29531797766685486,0.11849735677242279,-0.23342689871788025,-0.43931299448013306,-0.70790290832519531,0.11457805335521698,-0.10748283565044403,-0.25469416379928589,0.011069588363170624,0.057377263903617859,0.15176138281822205,0.2438192218542099,0.53737378120422363,-0.033104315400123596,0.068219766020774841,-0.23627150058746338,0.13511417806148529,0.028003120794892311,-0.61870425939559937,0.19419951736927032,-0.35460203886032104,-0.50348478555679321,-0.081910759210586548,0.90732395648956299,-0.087069958448410034,-0.30131989717483521,-0.013802427798509598,-0.36915704607963562,0.081863924860954285,0.0098118428140878677,-0.51079392433166504,0.072678826749324799,-0.038462176918983459,-0.12431667000055313,-0.20890814065933228,-0.11504979431629181,0.66857635974884033,-0.273296058177948,-0.26618200540542603,0.01675710640847683,0.13050936162471771,0.29504835605621338,0.061643164604902267,-0.26807194948196411,0.25951075553894043, 
  /* [4][0][][] */ -0.19698549807071686,-0.44959536194801331,-0.017290635034441948,0.059261646121740341,0.26787939667701721,-0.24736484885215759,-0.10266751050949097,-0.09116913378238678,0.23383350670337677,-0.24139124155044556,0.50854980945587158,-0.66352415084838867,0.038972031325101852,0.25797805190086365,0.053044538944959641,0.10228993743658066,-0.14747807383537292,-0.18660072982311249,0.086864404380321503,-0.14746040105819702,-0.05060974508523941,-0.42837837338447571,-0.024599071592092514,-0.13730987906455994,0.11013185977935791,-0.095029190182685852,0.35006868839263916,0.39086568355560303,0.27056723833084106,0.1912275105714798,-0.086917050182819366,0.20472776889801025,-0.11296994984149933,-0.052427422255277634,0.006911539938300848,-0.0044372482225298882,-0.5465017557144165,0.79461109638214111,0.28993281722068787,-0.20305252075195312,0.19437745213508606,-0.17477579414844513,-0.17188121378421783,-0.17360909283161163,-0.64143145084381104,0.13546717166900635,1.0747801065444946,0.090160571038722992, 
  /* [5][0][][] */ 0.25365844368934631,-0.14707407355308533,0.018781742081046104,0.094238713383674622,0.14799787104129791,-0.26820176839828491,0.24371540546417236,-0.79530668258666992,0.16920307278633118,-0.21703074872493744,-0.041983932256698608,0.78585958480834961,-0.50866407155990601,0.44898030161857605,0.12701508402824402,-0.44213119149208069,0.022445570677518845,-0.59696680307388306,0.16514770686626434,0.035180114209651947,-0.20263998210430145,0.39327928423881531,-0.21441784501075745,-0.34770244359970093,-0.36879467964172363,0.4725818932056427,-0.16438870131969452,-0.0079496670514345169,-0.10910794883966446,0.35026359558105469,-0.31999030709266663,-0.20600795745849609,0.17279256880283356,0.35325607657432556,0.27372440695762634,-0.0016457936726510525,-0.25514337420463562,-0.074152164161205292,-0.3285529613494873,-0.29009175300598145,0.1228068619966507,-0.20303696393966675,-0.26580634713172913,-0.028322597965598106,-0.22855180501937866,0.39156728982925415,0.59150749444961548,0.14670082926750183, 
  /* [6][0][][] */ 0.47041934728622437,-0.22450606524944305,0.23518514633178711,-0.13293151557445526,-0.33736962080001831,-0.15722267329692841,-0.32305410504341125,0.15871217846870422,-0.373259037733078,0.079553768038749695,-0.38960501551628113,1.2743734121322632,-0.40119817852973938,-0.37194657325744629,-0.091744296252727509,0.50356531143188477,0.13184891641139984,0.43995165824890137,0.17588034272193909,0.27706867456436157,0.42876598238945007,-0.86188781261444092,-0.16175279021263123,0.18250277638435364,0.19708414375782013,0.45697569847106934,-0.61773568391799927,0.0079111522063612938,0.1184435561299324,-0.33612954616546631,0.15135262906551361,0.3447137176990509,0.10404147952795029,0.15215517580509186,-0.1221482902765274,-0.03093586303293705,0.08139452338218689,-0.05231790617108345,0.003213260555639863,-0.022634968161582947,-0.070921003818511963,-0.14293108880519867,0.38690656423568726,0.53768545389175415,-0.014107889495790005,-0.28376105427742004,0.69414210319519043,-0.11811365187168121, 
  /* [7][0][][] */ -0.13832467794418335,-0.0084118908271193504,0.0036675787996500731,0.35054704546928406,0.19143447279930115,0.18173997104167938,0.024619616568088531,0.15381084382534027,0.14190749824047089,0.033470392227172852,0.39984896779060364,-0.02801884338259697,0.68981456756591797,0.62776422500610352,0.37269753217697144,0.30654186010360718,0.25046658515930176,0.30021822452545166,-0.12030245363712311,0.0085333297029137611,0.11528490483760834,-0.095859438180923462,-0.55635035037994385,-0.14007951319217682,0.10024278610944748,-0.0069299535825848579,-0.1555817574262619,0.39495089650154114,0.2069929838180542,-0.1521562933921814,-0.19084595143795013,-0.11187809705734253,0.2277892529964447,0.024818453937768936,0.21188037097454071,-0.58807218074798584,-0.43362388014793396,0.20903791487216949,0.20253074169158936,0.33375540375709534,-0.24229748547077179,0.1675867885351181,0.48462757468223572,0.73026049137115479,-0.34392830729484558,-0.15054738521575928,-0.62509483098983765,0.35460522770881653, 
};
const TfArray<4, int> tensor_dimension19 = { 4, { 8,1,1,48 } };
const ALIGN(16) float tensor_data20[48*1*1*8] = { 
  /* [0][0][][] */ 0.17832541465759277,0.37276658415794373,-0.31317049264907837,-0.36196684837341309,0.01136242039501667,0.27538284659385681,0.077260814607143402,0.19017097353935242, 
  /* [1][0][][] */ 0.1860477477312088,-0.21106234192848206,0.14149545133113861,-0.41260185837745667,-0.12013851851224899,0.21486192941665649,-0.24851149320602417,-0.11065486818552017, 
  /* [2][0][][] */ -0.025453492999076843,0.12736362218856812,0.10076923668384552,0.054101090878248215,0.10642272233963013,-0.0083269812166690826,0.037765823304653168,0.0070982137694954872, 
  /* [3][0][][] */ 0.24170909821987152,0.091063737869262695,-0.25488743185997009,0.1112503781914711,-0.021491441875696182,-0.29825294017791748,-0.35119161009788513,-0.045478370040655136, 
  /* [4][0][][] */ -0.16356411576271057,0.11003165692090988,0.046952538192272186,-0.1121596172451973,-0.099460005760192871,0.34657388925552368,0.3307216465473175,0.15948055684566498, 
  /* [5][0][][] */ 0.1104612872004509,0.31151509284973145,-0.48325487971305847,-0.27842673659324646,0.21031998097896576,0.28201779723167419,0.089130796492099762,-0.11114869266748428, 
  /* [6][0][][] */ 0.017371527850627899,0.22504770755767822,0.11134037375450134,0.13658352196216583,0.14783042669296265,-0.012181169353425503,0.015541684813797474,-0.18997585773468018, 
  /* [7][0][][] */ 0.1163235604763031,-0.018862955272197723,-0.040625248104333878,0.016120530664920807,0.026494286954402924,-0.001928888144902885,0.095366612076759338,0.0065241679549217224, 
  /* [8][0][][] */ 0.095935679972171783,0.26134863495826721,0.13410733640193939,0.19827862083911896,0.21504774689674377,0.13332338631153107,0.14919944107532501,-0.14985679090023041, 
  /* [9][0][][] */ 0.19587472081184387,0.40453428030014038,-0.49403655529022217,-0.32786375284194946,0.033078998327255249,0.37801548838615417,0.042065456509590149,0.23885725438594818, 
  /* [10][0][][] */ -0.23841658234596252,-0.15280887484550476,0.088749684393405914,-0.19615662097930908,-0.013183144852519035,-0.14738063514232635,-0.19020931422710419,0.47908055782318115, 
  /* [11][0][][] */ 0.0025002250913530588,-0.31737485527992249,-0.34960043430328369,-0.048221763223409653,0.010005944408476353,0.013415769673883915,0.13653306663036346,-0.07558470219373703, 
  /* [12][0][][] */ 0.014173869974911213,-0.085675798356533051,-0.10116862505674362,-0.024471120908856392,-0.089078016579151154,0.027920281514525414,-0.056863032281398773,0.034695152193307877, 
  /* [13][0][][] */ -0.02269003726541996,0.044104553759098053,-0.35441973805427551,0.41416484117507935,-0.49003592133522034,-0.11277061700820923,-0.025918101891875267,-0.03148336336016655, 
  /* [14][0][][] */ -0.23961585760116577,-0.14096769690513611,-0.45975375175476074,-0.05603625625371933,0.14111913740634918,-0.0039958353154361248,-0.047742098569869995,-0.20945389568805695, 
  /* [15][0][][] */ 0.018812846392393112,-0.075329311192035675,-0.08993859589099884,0.005776627454906702,-0.059169650077819824,-0.019748304039239883,-0.016129089519381523,-0.0089190714061260223, 
  /* [16][0][][] */ 0.6176488995552063,-0.29833933711051941,-0.05443761870265007,0.28023949265480042,-0.36982199549674988,0.10759738087654114,0.12330415099859238,0.44808778166770935, 
  /* [17][0][][] */ -0.056841909885406494,0.34587621688842773,0.36685895919799805,-0.11303030699491501,-0.14582623541355133,-0.020205685868859291,-0.10770349949598312,-0.066332496702671051, 
  /* [18][0][][] */ 0.043468322604894638,-0.47143363952636719,0.19585837423801422,0.32466438412666321,-0.040420789271593094,-0.23801705241203308,0.15274554491043091,-0.3842792809009552, 
  /* [19][0][][] */ 0.40522480010986328,-0.14278779923915863,-0.21214264631271362,0.12366718798875809,-0.32320445775985718,0.0078472141176462173,0.12211886048316956,0.32070374488830566, 
  /* [20][0][][] */ -0.098982237279415131,-0.37993007898330688,0.24986477196216583,0.22948625683784485,-0.069004595279693604,-0.27986571192741394,0.0076721860095858574,-0.22438108921051025, 
  /* [21][0][][] */ -0.021656237542629242,-0.15023365616798401,-0.016121504828333855,-0.068664886057376862,0.40802419185638428,-0.015095901675522327,0.18916812539100647,0.074188917875289917, 
  /* [22][0][][] */ -0.78092223405838013,0.14159421622753143,-0.45439949631690979,0.25305843353271484,0.31462058424949646,0.37980163097381592,-0.53653204441070557,-0.65562009811401367, 
  /* [23][0][][] */ -0.046841658651828766,-0.021408697590231895,0.03193143755197525,-0.00033853499917313457,-0.045741245150566101,0.044384490698575974,0.051116775721311569,-0.023653440177440643, 
  /* [24][0][][] */ -0.091052204370498657,0.13606497645378113,0.033926121890544891,-0.069353662431240082,-0.079838037490844727,0.24928924441337585,0.19728922843933105,0.016388388350605965, 
  /* [25][0][][] */ -0.1063988134264946,-0.25782176852226257,-0.25373390316963196,-0.082942672073841095,-0.071311153471469879,-0.040947128087282181,-0.056410450488328934,-0.12429563701152802, 
  /* [26][0][][] */ -0.0075952908955514431,0.052016019821166992,-0.03124690055847168,0.1296764463186264,-0.11272087693214417,0.045896433293819427,-0.054551377892494202,-0.013945253565907478, 
  /* [27][0][][] */ 0.04096507653594017,-0.45128488540649414,0.11637093871831894,0.23817327618598938,0.060572963207960129,-0.18164652585983276,0.04008050262928009,-0.43057101964950562, 
  /* [28][0][][] */ 0.026864878833293915,0.20012164115905762,0.13832999765872955,0.091435916721820831,0.15209533274173737,-0.036742184311151505,0.041041582822799683,-0.06301494687795639, 
  /* [29][0][][] */ 0.21932141482830048,0.059066507965326309,-0.086750857532024384,-0.054284289479255676,0.11003703624010086,-0.24669064581394196,-0.2109171599149704,0.080936327576637268, 
  /* [30][0][][] */ 0.24016055464744568,-0.095699451863765717,0.23865887522697449,-0.89144086837768555,0.20441992580890656,-0.10663396865129471,0.13388256728649139,-0.20025956630706787, 
  /* [31][0][][] */ 0.28740400075912476,-0.20067702233791351,0.027633629739284515,0.36182940006256104,-0.047316908836364746,0.17951610684394836,0.069828718900680542,0.70796144008636475, 
  /* [32][0][][] */ -0.2436167299747467,-0.19199718534946442,0.010890542529523373,-0.14329491555690765,-0.18370494246482849,0.34401392936706543,0.13874471187591553,0.19221635162830353, 
  /* [33][0][][] */ -0.081239856779575348,0.16226252913475037,0.14689911901950836,-0.11540710180997849,0.12366031855344772,0.42662400007247925,-0.35459941625595093,0.21790891885757446, 
  /* [34][0][][] */ 0.1314263790845871,0.4950161874294281,-0.35469585657119751,-0.19849811494350433,-0.024734238162636757,0.22927430272102356,-0.26254367828369141,0.21153818070888519, 
  /* [35][0][][] */ 0.033824048936367035,-0.55127489566802979,0.17573602497577667,0.22404254972934723,-0.033066019415855408,-0.29502362012863159,0.16335591673851013,-0.30807521939277649, 
  /* [36][0][][] */ -0.023830557242035866,-0.09458652138710022,-0.24673521518707275,-0.024158582091331482,-0.31348174810409546,-0.16444404423236847,-0.059683389961719513,0.022153977304697037, 
  /* [37][0][][] */ -0.2794608473777771,-0.54434847831726074,0.25391325354576111,0.35170853137969971,-0.14500656723976135,-0.38819020986557007,-0.0073283752426505089,-0.22944556176662445, 
  /* [38][0][][] */ -0.24795661866664886,0.087766289710998535,0.22309528291225433,-0.21626864373683929,-0.3918343186378479,-0.26603800058364868,-0.21182529628276825,0.28362259268760681, 
  /* [39][0][][] */ 0.20538948476314545,-0.42959111928939819,0.28993338346481323,0.24230958521366119,-0.13666293025016785,-0.29424047470092773,-0.066223211586475372,-0.27261316776275635, 
  /* [40][0][][] */ 0.02193889394402504,0.14580801129341125,0.047795642167329788,0.12989005446434021,-0.30335843563079834,-0.050896510481834412,-0.14270779490470886,0.018933767452836037, 
  /* [41][0][][] */ 0.34813368320465088,0.37276867032051086,-0.2794647216796875,-0.39976438879966736,0.16201162338256836,0.062207598239183426,0.0093176914379000664,0.057733058929443359, 
  /* [42][0][][] */ 0.0068963756784796715,-0.082952640950679779,-0.064824983477592468,0.048253480345010757,0.41259592771530151,0.039458654820919037,0.11059366911649704,0.073075398802757263, 
  /* [43][0][][] */ 0.29158890247344971,0.063932657241821289,0.17347021400928497,0.072553016245365143,-0.15697130560874939,-0.057242747396230698,0.12571610510349274,0.22807179391384125, 
  /* [44][0][][] */ 0.15022629499435425,0.084045730531215668,-0.047938939183950424,0.018089858815073967,0.17141129076480865,-0.25074589252471924,-0.20576882362365723,0.048962391912937164, 
  /* [45][0][][] */ 0.14166629314422607,0.031440671533346176,0.053935650736093521,0.070111192762851715,0.18294301629066467,-0.41417667269706726,-0.03304499015212059,-0.15454168617725372, 
  /* [46][0][][] */ 0.30375972390174866,-0.22466425597667694,0.0085852723568677902,0.63542026281356812,0.18618480861186981,0.3397691547870636,0.14124473929405212,0.35509026050567627, 
  /* [47][0][][] */ -0.18135188519954681,-0.097181603312492371,0.12537521123886108,0.11082649976015091,-0.058068990707397461,0.017958633601665497,0.20206378400325775,-0.13529360294342041, 
};
const TfArray<4, int> tensor_dimension20 = { 4, { 48,1,1,8 } };
const ALIGN(16) float tensor_data21[8*1*1*48] = { 
  /* [0][0][][] */ -0.13589172065258026,-0.13608899712562561,-0.080165848135948181,-0.2295176088809967,0.0015511894598603249,-0.066563040018081665,0.24863685667514801,0.24315528571605682,-0.29277017712593079,-0.27301633358001709,-0.11824990808963776,0.039601735770702362,-0.19906789064407349,-0.014308313839137554,-0.21033470332622528,0.13388523459434509,-0.28228431940078735,0.049135491251945496,0.028855910524725914,0.40533986687660217,0.16776129603385925,-0.047327794134616852,0.019578445702791214,0.26277095079421997,0.21558123826980591,0.25247171521186829,0.072643503546714783,-0.00056917272740975022,-0.31813958287239075,-0.1533496230840683,-0.26123139262199402,-0.18475955724716187,-0.20309457182884216,0.33071720600128174,0.083946891129016876,-0.14548169076442719,0.10666073113679886,-0.10625766962766647,0.31168946623802185,-0.014130226336419582,0.1113809272646904,-0.017039988189935684,-0.0034979421179741621,-0.31579363346099854,0.084830865263938904,-0.069522999227046967,-0.077094338834285736,-0.28350192308425903, 
  /* [1][0][][] */ -0.038164220750331879,0.21900427341461182,-0.063082732260227203,-0.10216180980205536,-0.2331610769033432,0.1607343852519989,-0.039550177752971649,-0.14518332481384277,-0.080317489802837372,0.2371828556060791,-0.047090154141187668,0.098733328282833099,0.21055310964584351,0.12529255449771881,-0.20785374939441681,0.041373308748006821,-0.10178518295288086,-0.39963448047637939,0.26614487171173096,-0.21365492045879364,0.45226132869720459,0.044816039502620697,-0.23286686837673187,0.092007890343666077,0.199118971824646,-0.04334750771522522,-0.273487389087677,0.23020097613334656,0.1191684752702713,-0.047350425273180008,0.2604706883430481,0.11144667863845825,-0.068420618772506714,-0.043502878397703171,0.0095846466720104218,-0.064744859933853149,-0.020840395241975784,0.4041898250579834,-0.032155510038137436,-0.10507475584745407,0.22032155096530914,0.11490205675363541,-0.068300314247608185,0.055918015539646149,0.34029093384742737,0.067256271839141846,-0.10954219102859497,0.21156066656112671, 
  /* [2][0][][] */ -0.13005167245864868,-0.16430427134037018,0.62221872806549072,0.091078951954841614,0.50854665040969849,-0.23976925015449524,-0.025073984637856483,0.15086133778095245,-0.16904965043067932,-0.026407761499285698,-0.066582068800926208,0.27954375743865967,0.068822026252746582,-0.23213313519954681,-0.30435425043106079,-0.68269264698028564,-0.30563360452651978,-0.60055893659591675,-0.12135551869869232,0.058662258088588715,-0.54661089181900024,0.12035219371318817,-0.23171749711036682,-0.21076661348342896,-0.31243428587913513,0.047580718994140625,-0.0047372421249747276,-0.26440128684043884,-0.26219859719276428,0.019689477980136871,-0.18246385455131531,-0.074727363884449005,-0.019664216786623001,-0.015886168926954269,0.12864445149898529,-0.047027748078107834,0.078885816037654877,-0.17800179123878479,-0.25595977902412415,0.046805139631032944,0.22176583111286163,-0.18336912989616394,0.11309988796710968,-0.27449539303779602,-0.27260860800743103,-0.19663678109645844,-0.32962912321090698,-0.33971104025840759, 
  /* [3][0][][] */ 0.23795086145401001,0.082176074385643005,0.31202074885368347,0.029870603233575821,0.06787186861038208,-0.18305592238903046,0.17146746814250946,0.33854088187217712,-0.21908584237098694,-0.17438918352127075,0.26303347945213318,0.00436778599396348,-0.31383994221687317,0.26410159468650818,-0.11214118450880051,0.31760480999946594,0.29420232772827148,0.16512252390384674,-0.17934440076351166,0.11050015687942505,-0.5390927791595459,-0.29421788454055786,0.61448186635971069,-0.031153518706560135,-0.0045477356761693954,0.04258548840880394,-0.17295169830322266,-0.1790650337934494,-0.26698124408721924,0.28832590579986572,0.64781296253204346,-0.25238135457038879,0.11528120189905167,-0.54253655672073364,-0.098288640379905701,0.19863261282444,-0.019340842962265015,-0.41392570734024048,-0.01196391973644495,0.32279151678085327,-0.45357745885848999,-0.36074158549308777,0.33129307627677917,0.073531098663806915,-0.49421399831771851,-0.34954643249511719,0.28032153844833374,-0.022782940417528152, 
  /* [4][0][][] */ 0.10756844282150269,-0.086774706840515137,0.43605256080627441,-0.20475742220878601,0.035498619079589844,-0.059597261250019073,-0.028246423229575157,-0.00698457146063447,-0.322538822889328,-0.032051548361778259,-0.10289715230464935,0.078778080642223358,0.28469544649124146,-0.4419630765914917,0.20980139076709747,-0.53341549634933472,0.22577507793903351,0.27568849921226501,-0.063495948910713196,-0.20500533282756805,0.053197365254163742,0.20234893262386322,0.088125519454479218,0.0090071028098464012,0.0084190675988793373,0.052854936569929123,0.34631714224815369,-0.11862339824438095,0.21461533010005951,0.14487491548061371,-0.73918789625167847,-0.094997748732566833,-0.12025367468595505,-0.11999954283237457,0.056365817785263062,0.095960743725299835,0.29520910978317261,-0.030643900856375694,0.24269407987594604,-0.00032137829111889005,-0.25617393851280212,-0.084967471659183502,-0.4259224534034729,0.16288727521896362,-0.12615977227687836,-0.55435299873352051,0.021620841696858406,0.10337648540735245, 
  /* [5][0][][] */ 0.20174498856067657,-0.34661903977394104,0.33815312385559082,0.19649703800678253,0.18255817890167236,0.20543406903743744,0.20983263850212097,0.0077240229584276676,-0.51126056909561157,-0.074944794178009033,-0.2714807391166687,0.27412417531013489,0.20115010440349579,0.083662137389183044,0.1178903803229332,-0.25605320930480957,0.59114229679107666,0.45295172929763794,0.023420143872499466,-0.10518356412649155,0.58224236965179443,-0.39231625199317932,0.8264542818069458,-0.53346216678619385,-0.081670433282852173,0.28781706094741821,0.11948731541633606,0.27601474523544312,0.07177463173866272,0.080407746136188507,-0.13876593112945557,-0.25470927357673645,-0.13791617751121521,-0.31815433502197266,-0.20623348653316498,0.17352345585823059,0.25645545125007629,0.1158711165189743,0.42211818695068359,0.070398531854152679,-0.49567362666130066,0.19877311587333679,0.22510500252246857,0.19960372149944305,0.37283450365066528,-0.12006717175245285,0.48070895671844482,-0.0081278374418616295, 
  /* [6][0][][] */ -0.16781705617904663,0.14899985492229462,-0.42341336607933044,0.29958686232566833,0.13153977692127228,0.10684546828269958,0.14881671965122223,0.058353900909423828,-0.083404615521430969,-0.04817146435379982,0.2334950715303421,-0.25940752029418945,-0.32276841998100281,-0.055466398596763611,-0.08506128191947937,0.073076710104942322,-0.35259169340133667,0.053621236234903336,-0.055399321019649506,0.30299872159957886,0.038715425878763199,0.12744031846523285,-0.2429514080286026,-0.26564306020736694,0.013619664125144482,-0.082182601094245911,0.1472717672586441,0.19806253910064697,-0.10232318192720413,-0.13778331875801086,-0.096336454153060913,0.032055165618658066,0.13765637576580048,0.23168395459651947,-0.15712082386016846,-0.04334162175655365,-0.031285889446735382,-0.085308767855167389,0.23860563337802887,0.020053384825587273,0.1810280978679657,0.18580736219882965,-0.37622323632240295,-0.15860138833522797,-0.12922877073287964,0.37321323156356812,-0.18198111653327942,-0.12351798266172409, 
  /* [7][0][][] */ 0.12673266232013702,0.26773536205291748,-0.29184824228286743,0.045724168419837952,0.068954356014728546,0.20306117832660675,0.44197282195091248,0.23728543519973755,0.14767195284366608,0.31096518039703369,-0.37600594758987427,-0.093038603663444519,-0.16455687582492828,-0.0029641750734299421,-0.21956580877304077,-0.20501576364040375,0.10162381082773209,0.12172393500804901,0.4443432092666626,0.37723207473754883,0.27574491500854492,-0.02541901171207428,0.41186374425888062,0.098469473421573639,0.420228511095047,0.35392770171165466,-0.23461832106113434,0.32200217247009277,-0.25431454181671143,0.093450702726840973,-0.0564994215965271,-0.28110134601593018,0.096011392772197723,-0.26272448897361755,-0.054176360368728638,0.062012441456317902,-0.02928941510617733,0.36946707963943481,-0.23010358214378357,0.3392828106880188,-0.23032426834106445,0.18789994716644287,-0.051269169896841049,-0.31692302227020264,0.26287651062011719,-0.078641615808010101,0.17734670639038086,-0.12984673678874969, 
};
const TfArray<4, int> tensor_dimension21 = { 4, { 8,1,1,48 } };
const ALIGN(16) float tensor_data22[48*1*1*8] = { 
  /* [0][0][][] */ 0.15079469978809357,0.091066330671310425,0.30265152454376221,-0.083875425159931183,0.17648904025554657,0.26558440923690796,-0.18416473269462585,-0.10672927647829056, 
  /* [1][0][][] */ 0.024559969082474709,-0.25694495439529419,-0.44545888900756836,0.0094273388385772705,0.21056978404521942,0.067219734191894531,0.11436359584331512,0.026631444692611694, 
  /* [2][0][][] */ -0.39014500379562378,-0.0035515639465302229,-0.17878140509128571,-0.11571230739355087,0.18073621392250061,0.13080033659934998,-0.25958305597305298,-0.12689463794231415, 
  /* [3][0][][] */ 0.080935083329677582,0.19117929041385651,0.40010601282119751,-0.18285836279392242,0.0071363262832164764,-0.313264399766922,-0.001006045495159924,-0.043438941240310669, 
  /* [4][0][][] */ -0.29623398184776306,0.04715009406208992,-0.11383397132158279,-0.049649700522422791,0.11089859902858734,0.058685302734375,-0.093635395169258118,-0.12269160896539688, 
  /* [5][0][][] */ -0.21611090004444122,0.060984041541814804,-0.13883338868618011,-0.04227684810757637,0.016969209536910057,0.067998476326465607,-0.19523483514785767,-0.30158776044845581, 
  /* [6][0][][] */ -0.082872278988361359,-0.29420846700668335,-0.26763895153999329,0.07721160352230072,0.21456247568130493,0.022910481318831444,0.0044314656406641006,0.080871552228927612, 
  /* [7][0][][] */ -0.09951319545507431,-0.23527185618877411,-0.15114344656467438,-0.11902156472206116,-0.11781756579875946,-0.11602576822042465,0.041167944669723511,0.1421923041343689, 
  /* [8][0][][] */ 0.25176835060119629,0.090988218784332275,-0.020553776994347572,-0.013477995060384274,0.29511231184005737,-0.20348800718784332,-0.39289224147796631,0.050782755017280579, 
  /* [9][0][][] */ -0.14736978709697723,0.20993100106716156,-0.21453675627708435,0.37252926826477051,-0.23059479892253876,-0.14789780974388123,0.49946215748786926,-0.17209862172603607, 
  /* [10][0][][] */ -0.056472860276699066,0.2447517067193985,0.095656178891658783,0.13586360216140747,0.24543415009975433,-0.038404803723096848,-0.0048906481824815273,0.097850576043128967, 
  /* [11][0][][] */ -0.16903311014175415,-0.060091372579336166,-0.052793078124523163,-0.026553241536021233,-0.17972120642662048,0.25816255807876587,0.26947343349456787,-0.010558123700320721, 
  /* [12][0][][] */ 0.24797773361206055,0.078436657786369324,-0.43946674466133118,0.10812743753194809,-0.034788828343153,-0.15055748820304871,-0.21713580191135406,-0.077557697892189026, 
  /* [13][0][][] */ 0.2083580493927002,-0.077774293720722198,-0.23499120771884918,-0.047700375318527222,0.061136443167924881,-0.44520199298858643,-0.12311393022537231,-0.065234005451202393, 
  /* [14][0][][] */ 0.024679495021700859,-0.2239634096622467,0.27009597420692444,0.078126057982444763,0.35079571604728699,-0.34292611479759216,-0.16930189728736877,0.029940947890281677, 
  /* [15][0][][] */ -0.070848077535629272,-0.073191680014133453,-0.014477663673460484,0.23253339529037476,0.12399512529373169,0.18707820773124695,-0.15193153917789459,0.064199469983577728, 
  /* [16][0][][] */ 0.29301998019218445,0.10039781033992767,-0.058286096900701523,0.075512342154979706,0.22176070511341095,-0.28710293769836426,-0.32746410369873047,-0.10106179863214493, 
  /* [17][0][][] */ 0.1348087340593338,0.2732560932636261,0.1198921799659729,0.18414050340652466,0.11847049742937088,0.14572891592979431,0.063278630375862122,-0.21912494301795959, 
  /* [18][0][][] */ 0.065522663295269012,-0.029709849506616592,0.0089084776118397713,0.027215408161282539,0.24718323349952698,-0.0010897147003561258,0.060006391257047653,-0.029319077730178833, 
  /* [19][0][][] */ 0.043762780725955963,0.43998906016349792,0.14874076843261719,0.091372758150100708,-0.43738317489624023,0.030827537178993225,0.096688404679298401,-0.14710956811904907, 
  /* [20][0][][] */ -0.14517925679683685,0.085325710475444794,0.19413596391677856,-0.34172147512435913,0.036767330020666122,0.088058017194271088,-0.068573951721191406,0.29127165675163269, 
  /* [21][0][][] */ -0.096125088632106781,0.16227136552333832,0.080776415765285492,-0.34490907192230225,0.034977346658706665,0.13135436177253723,0.0045204530470073223,0.2736353874206543, 
  /* [22][0][][] */ -0.17578250169754028,-0.20650686323642731,-0.2363419383764267,0.062851138412952423,-0.25277215242385864,0.32213607430458069,0.28397810459136963,-0.036677286028862, 
  /* [23][0][][] */ 0.21103182435035706,0.079891309142112732,-0.24462175369262695,0.032225538045167923,0.026922887191176414,-0.13970884680747986,-0.15404631197452545,-0.061467245221138, 
  /* [24][0][][] */ -0.13719043135643005,0.13098162412643433,0.034269243478775024,-0.01788957417011261,-0.030056903138756752,0.1992478221654892,-0.26682072877883911,0.19348138570785522, 
  /* [25][0][][] */ -0.27056676149368286,-0.16326573491096497,-0.32646787166595459,0.046034861356019974,-0.14488892257213593,-0.18360081315040588,0.19908912479877472,0.23536340892314911, 
  /* [26][0][][] */ 0.16537860035896301,-0.037405509501695633,-0.12080612033605576,-0.099655650556087494,0.32479760050773621,-0.043682761490345001,0.45186120271682739,-0.15289504826068878, 
  /* [27][0][][] */ 0.41804108023643494,-0.20695036649703979,0.057489454746246338,0.28853774070739746,0.0010908535914495587,0.1175314337015152,-0.099007152020931244,0.35387691855430603, 
  /* [28][0][][] */ 0.042667783796787262,0.08653857558965683,0.046383507549762726,-0.0058952397666871548,0.15365733206272125,-0.086636267602443695,0.067922145128250122,-0.036409083753824234, 
  /* [29][0][][] */ -0.035994380712509155,-0.048775415867567062,-0.037860773503780365,-0.13394349813461304,-0.21121259033679962,0.030650576576590538,0.41750282049179077,-0.11080147325992584, 
  /* [30][0][][] */ 0.078060343861579895,-0.25836819410324097,-0.072020314633846283,-0.15394368767738342,-0.22885158658027649,0.04529678076505661,0.028703773394227028,-0.10278359055519104, 
  /* [31][0][][] */ 0.011990275233983994,0.065736792981624603,-0.0038823515642434359,0.0012128473026677966,-0.23583367466926575,-0.0042932340875267982,-0.045211266726255417,-0.011133828200399876, 
  /* [32][0][][] */ 0.10768118500709534,-0.13344351947307587,-0.13065712153911591,0.15506933629512787,-0.0094944033771753311,-0.16687548160552979,0.23676125705242157,-0.27120661735534668, 
  /* [33][0][][] */ 0.090049214661121368,0.25093749165534973,0.10229752212762833,0.062520749866962433,0.11023900657892227,-0.030667945742607117,-0.040483314543962479,-0.03250778466463089, 
  /* [34][0][][] */ -0.37265989184379578,-0.10261882841587067,0.3599337637424469,-0.016355732455849648,-0.059772655367851257,0.28399750590324402,0.289955735206604,0.038106076419353485, 
  /* [35][0][][] */ -0.076008260250091553,0.220630943775177,0.37912619113922119,-0.044903755187988281,-0.18340064585208893,-0.19781652092933655,-0.098669454455375671,0.054644614458084106, 
  /* [36][0][][] */ -0.25145846605300903,0.042926773428916931,0.26535505056381226,-0.05472094938158989,-0.061867263168096542,0.3447224497795105,0.17991694808006287,0.047809980809688568, 
  /* [37][0][][] */ -0.051335804164409637,-0.23052671551704407,-0.015695713460445404,-0.30821755528450012,-0.10383795946836472,-0.20078295469284058,0.20412071049213409,0.10747367143630981, 
  /* [38][0][][] */ 0.14556196331977844,-0.040721502155065536,0.23244898021221161,-0.15221230685710907,0.18981395661830902,0.18080276250839233,-0.3710465133190155,0.033937577158212662, 
  /* [39][0][][] */ -0.063964247703552246,0.24563503265380859,-0.26377329230308533,-0.084498330950737,-0.0020742765627801418,0.0054677929729223251,-0.0020338220056146383,0.20729410648345947, 
  /* [40][0][][] */ 0.23435010015964508,-0.19413281977176666,0.065912410616874695,0.11549346894025803,0.057072784751653671,0.021898923441767693,0.03239339217543602,0.41972005367279053, 
  /* [41][0][][] */ -0.011870160698890686,0.095137372612953186,0.13271759450435638,0.010467116720974445,0.0058810058981180191,0.095242388546466827,-0.060567386448383331,0.013350261375308037, 
  /* [42][0][][] */ 0.089842818677425385,-0.17092670500278473,-0.17416134476661682,-0.041082669049501419,-0.19185200333595276,0.036837272346019745,0.023763338103890419,-0.13815753161907196, 
  /* [43][0][][] */ -0.027269639074802399,-0.26123097538948059,0.12221720814704895,-0.18594013154506683,0.42749616503715515,-0.11322470009326935,0.073091126978397369,0.12564712762832642, 
  /* [44][0][][] */ -0.0035533637274056673,0.1500699520111084,0.14710737764835358,0.0099558606743812561,0.010969881899654865,0.050189658999443054,-0.063295967876911163,0.015542552806437016, 
  /* [45][0][][] */ -0.093836575746536255,0.1424172967672348,0.026604097336530685,0.21877866983413696,-0.37224096059799194,0.20139507949352264,-0.36624652147293091,0.075373157858848572, 
  /* [46][0][][] */ -0.090031437575817108,-0.08101934939622879,0.14559252560138702,0.11271639168262482,-0.24731297791004181,-0.28338161110877991,-0.092900395393371582,-0.00035206743632443249, 
  /* [47][0][][] */ -0.031981859356164932,0.12331545352935791,0.077887937426567078,-0.2681179940700531,-0.30506670475006104,0.09552001953125,-0.030629457905888557,0.16085225343704224, 
};
const TfArray<4, int> tensor_dimension22 = { 4, { 48,1,1,8 } };
const ALIGN(16) float tensor_data23[16*1*1*48] = { 
  /* [0][0][][] */ 0.25949299335479736,0.21733029186725616,0.15616732835769653,-0.19973947107791901,0.41386798024177551,0.32823514938354492,-0.26734966039657593,0.38047635555267334,-0.036928929388523102,0.5839877724647522,0.0042867003940045834,0.26149082183837891,-0.21276101469993591,0.24082104861736298,-0.074694328010082245,0.27378463745117188,0.17012207210063934,0.46680393815040588,0.23468683660030365,-0.37391737103462219,-0.42563989758491516,0.47044694423675537,-0.024378236383199692,0.29113823175430298,0.36792317032814026,0.18436706066131592,0.19028310477733612,0.30141597986221313,-0.19731961190700531,-0.24836418032646179,-0.059012390673160553,0.45682153105735779,-0.11656031757593155,0.0077719390392303467,-0.47339805960655212,0.3615562915802002,0.3357180655002594,-0.72839891910552979,-0.24362443387508392,0.11440812796354294,0.039506889879703522,-0.20571711659431458,0.32960867881774902,-0.038962032645940781,-0.08944384753704071,-0.36938267946243286,-0.42871189117431641,-0.11830718815326691, 
  /* [1][0][][] */ -0.33691608905792236,0.0057710548862814903,-0.48854616284370422,-0.27673548460006714,0.070470824837684631,0.57925355434417725,-0.35140123963356018,0.10319503396749496,-0.043328016996383667,-0.23140676319599152,-0.29698735475540161,0.27468711137771606,0.35661414265632629,-0.064893648028373718,-0.16413949429988861,-0.12181816250085831,-0.24798741936683655,-0.18174266815185547,-0.055462043732404709,0.094796769320964813,-0.4080565869808197,0.32516196370124817,-0.69339483976364136,-0.28344312310218811,-0.31943577527999878,-0.21854186058044434,0.33129832148551941,0.40530106425285339,-0.18135635554790497,-0.17225146293640137,0.22640427947044373,-0.25840899348258972,0.11058109253644943,-0.40524443984031677,-0.20131045579910278,0.26237624883651733,0.067647628486156464,-0.40003195405006409,0.84271585941314697,-0.17091022431850433,-0.088195659220218658,0.18214069306850433,-0.30760416388511658,-0.053246185183525085,0.23588940501213074,0.31360024213790894,0.20985856652259827,0.13510355353355408, 
  /* [2][0][][] */ 0.071096383035182953,0.0019271386554464698,0.32907229661941528,-0.21193255484104156,-0.095546729862689972,-0.44301941990852356,0.066498637199401855,0.14955155551433563,0.55350470542907715,0.40960580110549927,-0.32798373699188232,0.078273944556713104,0.61844146251678467,-0.2966022789478302,0.68789291381835938,0.43714010715484619,-0.35591700673103333,-0.13284264504909515,-0.15659581124782562,0.1012270376086235,0.48897755146026611,-0.42733299732208252,-0.18725375831127167,-0.55754035711288452,0.12073318660259247,-0.21288573741912842,0.17147822678089142,-0.32099264860153198,0.22169974446296692,0.25555500388145447,-0.220272496342659,0.11732877790927887,0.17862790822982788,-0.16873890161514282,0.2776796817779541,0.26006400585174561,-0.32777062058448792,0.075041823089122772,0.046790733933448792,-0.1783028244972229,0.14669665694236755,0.19149041175842285,0.26985198259353638,-0.093786329030990601,0.10156196355819702,-0.40120694041252136,0.46564596891403198,-0.30676460266113281, 
  /* [3][0][][] */ 0.19808010756969452,0.069002136588096619,-0.16429094970226288,-0.10761827230453491,0.16987566649913788,0.63781648874282837,0.085363090038299561,-0.14095741510391235,0.20474930107593536,-0.28042030334472656,0.18082708120346069,-0.13702508807182312,-0.25255000591278076,-0.022873943671584129,-0.001324188313446939,0.22150962054729462,-0.15076756477355957,-0.37540388107299805,0.2091144323348999,-0.75313395261764526,-0.10027210414409637,-0.088062107563018799,-0.15063022077083588,-0.17471212148666382,-0.25152388215065002,0.52357786893844604,0.74928003549575806,0.36748015880584717,-0.083337493240833282,-0.24940350651741028,0.21926754713058472,0.23035608232021332,0.30475166440010071,-0.14537644386291504,0.49572762846946716,0.30578780174255371,-0.29877060651779175,-0.321706622838974,0.0030039050616323948,0.17211730778217316,0.08521878719329834,0.11944639682769775,-0.12861177325248718,-0.069309517741203308,0.13497011363506317,0.14394292235374451,-0.045428454875946045,-0.13373552262783051, 
  /* [4][0][][] */ 0.427512526512146,-0.025352666154503822,0.02119147777557373,-0.21832273900508881,0.35958164930343628,0.35766467452049255,0.2214958667755127,-0.0071367803029716015,0.26701280474662781,-0.024909250438213348,-0.44607821106910706,0.10496183484792709,0.22935137152671814,-0.14561162889003754,0.062563568353652954,-0.04902312159538269,-0.32700809836387634,-0.53808420896530151,-0.12295971065759659,-0.40508931875228882,-0.1117873340845108,0.097705967724323273,-0.19909332692623138,-0.20742791891098022,-0.31017988920211792,0.54517465829849243,-0.4157833456993103,0.5098453164100647,-0.2425483912229538,-0.21619001030921936,0.12583301961421967,0.33998194336891174,0.10317668318748474,-0.14647066593170166,0.0067371353507041931,-0.11280961334705353,-0.0094940569251775742,0.085424304008483887,-0.1199415996670723,0.083492495119571686,-0.21268075704574585,-0.055965017527341843,-0.031014395877718925,0.18627676367759705,-0.2024192214012146,0.44095498323440552,-0.13567472994327545,-0.25674757361412048, 
  /* [5][0][][] */ -0.018252858892083168,0.011716189794242382,-0.3276139497756958,0.070982269942760468,-0.095278039574623108,0.36015698313713074,0.15397381782531738,-0.21712669730186462,0.37919986248016357,0.36645716428756714,0.20625758171081543,0.60235261917114258,0.32306450605392456,-0.13661879301071167,0.20048259198665619,-0.00056353391846641898,-0.27087080478668213,0.75492173433303833,-0.053878352046012878,0.26356810331344604,0.048113320022821426,0.0071797925047576427,-0.42490750551223755,-0.13311168551445007,0.19663245975971222,0.036092299968004227,-0.43012082576751709,-0.26618403196334839,-0.14571571350097656,0.2212931215763092,0.09024965763092041,-0.16263298690319061,-0.25330698490142822,-0.005501642357558012,0.22287562489509583,0.10078507661819458,-0.29004642367362976,0.077220171689987183,-0.56110048294067383,0.024416297674179077,0.54400789737701416,-0.12961958348751068,0.19078546762466431,0.31743648648262024,-0.099488779902458191,0.0042891791090369225,-0.24560654163360596,0.20918662846088409, 
  /* [6][0][][] */ 0.17294716835021973,0.046012066304683685,0.057472605258226395,0.32494720816612244,-0.011698353104293346,-0.13278442621231079,0.43951416015625,-0.2569945752620697,-0.014186222106218338,0.24349749088287354,0.50100773572921753,0.34727963805198669,0.097760356962680817,0.22090119123458862,-0.20100460946559906,0.15651901066303253,0.13583493232727051,-0.087922222912311554,-0.26499798893928528,0.31624138355255127,0.18454365432262421,-0.26003500819206238,-0.1730145663022995,0.22515411674976349,-0.39873892068862915,0.4215463399887085,0.32969474792480469,-0.02075478620827198,0.44386035203933716,0.20462927222251892,-0.1002156138420105,-0.038190599530935287,0.33552876114845276,-0.24289700388908386,-0.41631051898002625,-0.059974338859319687,0.3272138237953186,0.17736703157424927,0.013607571832835674,0.011355415917932987,0.059549175202846527,0.24001280963420868,0.23059216141700745,-0.13573071360588074,0.24256736040115356,0.4700050950050354,0.13389603793621063,-0.036917645484209061, 
  /* [7][0][][] */ -0.56213319301605225,-0.063778668642044067,-0.17883647978305817,0.12066405266523361,-0.37041738629341125,-0.33290731906890869,0.16677212715148926,0.26808366179466248,0.46929076313972473,0.71020966768264771,-0.26837050914764404,-0.47243157029151917,-0.56577569246292114,0.063272222876548767,-0.14235743880271912,-0.12317543476819992,-0.40456095337867737,0.6421661376953125,0.041146628558635712,0.7870795726776123,-0.27293092012405396,0.16950725018978119,0.12888333201408386,0.19697245955467224,-0.18429909646511078,-0.56410700082778931,-0.16944411396980286,-0.46135729551315308,0.165195032954216,0.24382542073726654,0.036626551300287247,0.051142159849405289,-0.20158053934574127,0.075414247810840607,0.085662379860877991,-0.17132669687271118,-0.030724199488759041,-0.32205626368522644,0.83671098947525024,-0.038738459348678589,-0.011501369066536427,0.28907844424247742,0.10031250864267349,-0.079668968915939331,0.38645115494728088,0.45877349376678467,-0.074648715555667877,0.029645241796970367, 
  /* [8][0][][] */ -0.049012988805770874,-0.34894165396690369,0.16915811598300934,-0.24788893759250641,0.19440086185932159,-0.19735002517700195,0.25431978702545166,-0.14561903476715088,-0.12141310423612595,-0.42101159691810608,0.091227352619171143,0.0014973239740356803,-0.088556721806526184,-0.042129490524530411,0.11450527608394623,0.086869455873966217,0.02649652399122715,0.0097915399819612503,-0.15393131971359253,0.37655952572822571,0.013242021203041077,0.14806286990642548,-0.059153590351343155,0.09101596474647522,0.22079969942569733,-0.031307127326726913,-0.27399638295173645,-0.11602889001369476,-0.44442048668861389,-0.072313994169235229,-0.19921775162220001,-0.42144212126731873,-0.011315034702420235,-0.22127717733383179,0.0062296767719089985,0.37112438678741455,0.028681965544819832,0.13944897055625916,0.38668361306190491,0.04614889994263649,0.033646069467067719,-0.012296889908611774,0.26358774304389954,0.41080725193023682,-0.045632824301719666,-0.243443563580513,-0.18868191540241241,0.27030971646308899, 
  /* [9][0][][] */ 0.065325893461704254,-0.10877332836389542,0.091582179069519043,-0.23386931419372559,0.15139190852642059,0.27168956398963928,-0.18132814764976501,0.16529098153114319,0.069139257073402405,-0.091871984302997589,-0.1461041122674942,-0.07722686231136322,0.052654359489679337,-0.19855119287967682,0.44242998957633972,-0.07526012510061264,0.061996560543775558,-0.47098597884178162,0.16480030119419098,0.15618260204792023,-0.31476175785064697,0.11829693615436554,0.20289760828018188,-0.2024863064289093,-0.098628506064414978,-0.27681487798690796,-0.085537314414978027,0.3176397979259491,0.25720331072807312,0.28274935483932495,-0.15471991896629333,-0.054513305425643921,-0.20775483548641205,0.10061009228229523,-0.083104819059371948,0.49854832887649536,-0.15751472115516663,-0.18337604403495789,-0.1937277615070343,-0.1357036828994751,-0.13913421332836151,0.02478395402431488,0.14625491201877594,0.39295172691345215,0.23054923117160797,0.35917747020721436,-0.25314673781394958,0.068823032081127167, 
  /* [10][0][][] */ -0.11756812036037445,0.17354100942611694,-0.22656664252281189,-0.10055610537528992,0.14504386484622955,0.22750453650951385,-0.46976837515830994,-0.25613930821418762,0.29693078994750977,0.2184162437915802,0.44864460825920105,-0.093383073806762695,-0.1973518580198288,-0.068404562771320343,0.32580843567848206,-0.36501032114028931,-0.38134929537773132,0.86912816762924194,0.037819754332304001,0.32639861106872559,0.056003652513027191,-0.089511483907699585,0.16911980509757996,0.23107056319713593,-0.37022581696510315,0.28162086009979248,0.046288579702377319,0.68306887149810791,0.26802879571914673,0.010417011566460133,-0.25625002384185791,0.014295065775513649,0.46333432197570801,0.10357311367988586,-0.030036110430955887,0.19498990476131439,-0.052186604589223862,-0.31168615818023682,-0.22182823717594147,0.1078374832868576,-0.58078712224960327,0.035706240683794022,0.19675455987453461,-0.088125333189964294,0.13706094026565552,0.33516761660575867,0.24353764951229095,0.25426062941551208, 
  /* [11][0][][] */ -0.24027881026268005,0.46673133969306946,-0.18492186069488525,0.30470138788223267,0.2426031231880188,0.48414218425750732,-0.038842502981424332,0.11139991134405136,0.086273461580276489,0.1621285080909729,-0.99358850717544556,-0.63166040182113647,0.60815328359603882,0.089962489902973175,-0.094644539058208466,-0.40367409586906433,0.086135469377040863,0.18825870752334595,-0.30477681756019592,-0.46447628736495972,-0.011014952324330807,-0.10503124445676804,0.85683000087738037,-0.031201913952827454,0.3984527587890625,0.06649557501077652,-0.13643117249011993,0.33511418104171753,-0.041782993823289871,0.20198424160480499,-0.048830028623342514,0.44416797161102295,0.16313521564006805,-0.055593486875295639,-0.43455258011817932,0.14699435234069824,0.35030838847160339,0.63247758150100708,0.86202174425125122,0.073738649487495422,0.16038668155670166,-0.22533871233463287,0.41831210255622864,-0.069294929504394531,-0.39873993396759033,-0.093430981040000916,0.67751675844192505,-0.03755013644695282, 
  /* [12][0][][] */ -0.40406855940818787,0.048396728932857513,0.16792462766170502,0.13384263217449188,-0.35572463274002075,-0.30307275056838989,0.0089595848694443703,-0.018771899864077568,-0.25340345501899719,-0.15298154950141907,-0.69510799646377563,0.097291924059391022,0.33220955729484558,-0.51963347196578979,0.081565417349338531,0.1232021227478981,0.24434889853000641,0.52990871667861938,0.45377418398857117,-0.5848771333694458,-0.21106374263763428,0.23898699879646301,-0.2068735808134079,-0.43814781308174133,-0.049336306750774384,-0.039361633360385895,0.18228527903556824,-0.18741762638092041,0.058729581534862518,0.11587797105312347,-0.10947013646364212,0.31013843417167664,0.33715397119522095,0.48792615532875061,0.19078338146209717,-0.11177698522806168,-0.2795281708240509,-0.11160290986299515,0.13456179201602936,0.024797104299068451,-0.20707838237285614,0.065087758004665375,0.34261706471443176,-0.052986551076173782,0.17062099277973175,-0.12166047841310501,-0.2067430317401886,-0.18554922938346863, 
  /* [13][0][][] */ -0.19976253807544708,-0.33683386445045471,-0.15146209299564362,-0.3102567195892334,0.043202120810747147,0.086566828191280365,0.18904504179954529,0.037493068724870682,-0.36009135842323303,0.11745750904083252,0.38782709836959839,-0.19764192402362823,0.11603603512048721,0.23042094707489014,0.41450232267379761,0.014389561489224434,0.36121475696563721,0.078608199954032898,-0.031467877328395844,-0.28879326581954956,0.22538582980632782,-0.29127001762390137,0.4324219822883606,0.012039993889629841,-0.29684209823608398,0.039538044482469559,-0.058594647794961929,0.045005355030298233,-0.12334422767162323,-0.38157150149345398,-0.37565478682518005,0.0028103755321353674,0.14265845715999603,-0.1128167137503624,-0.2312990128993988,0.16000016033649445,0.038735851645469666,-0.21144801378250122,0.28354746103286743,-0.27312934398651123,-0.022426683455705643,0.18604908883571625,0.28129273653030396,0.13019686937332153,0.20969139039516449,-0.10283283889293671,0.39936172962188721,-0.2411990761756897, 
  /* [14][0][][] */ 0.4169459342956543,0.11439312994480133,-0.3733430802822113,0.070435851812362671,-0.26752063632011414,0.12809932231903076,-0.61965030431747437,-0.23490561544895172,-0.19459386169910431,0.49157845973968506,0.41312596201896667,0.29078811407089233,-0.12732672691345215,-0.38131746649742126,0.086924776434898376,-0.3289511501789093,0.33849990367889404,-0.76245832443237305,0.14317694306373596,-0.018104745075106621,0.64211314916610718,-0.44762694835662842,0.14708517491817474,-0.05178900808095932,-0.093397289514541626,0.85914021730422974,-0.59692561626434326,0.02070697583258152,-0.34310075640678406,-0.19995877146720886,-0.6028016209602356,0.087575443089008331,0.82175207138061523,0.28057628870010376,0.57278603315353394,-0.21642580628395081,-0.58565181493759155,0.051820546388626099,-0.10865358263254166,0.31454375386238098,-0.14367581903934479,-0.2998330295085907,0.72791850566864014,-0.13155579566955566,-0.39685681462287903,-0.24571728706359863,-0.33704459667205811,0.31614965200424194, 
  /* [15][0][][] */ -0.42363438010215759,0.095620341598987579,0.18133115768432617,0.14061439037322998,0.5623738169670105,0.004910765215754509,-0.021636679768562317,0.21439431607723236,0.10373443365097046,0.45813700556755066,-0.052025701850652695,0.4276597797870636,0.35425660014152527,-0.071489162743091583,-0.28708964586257935,-0.15361057221889496,0.068700350821018219,0.25526085495948792,0.031077012419700623,-0.22833788394927979,0.13213549554347992,-0.26815462112426758,-0.30971091985702515,-0.36143872141838074,0.20227451622486115,-0.45096549391746521,-0.2257591187953949,0.36368799209594727,-0.13841964304447174,0.080459989607334137,0.12947817146778107,0.05910690501332283,-0.37584957480430603,0.012047689408063889,0.79218196868896484,-0.14818596839904785,-0.62036210298538208,0.11400401592254639,0.34779784083366394,-0.14822497963905334,-0.28744032979011536,-0.11958523839712143,0.18991085886955261,-0.057842478156089783,-0.25600770115852356,-0.19129936397075653,-0.064332827925682068,0.086579866707324982, 
};
const TfArray<4, int> tensor_dimension23 = { 4, { 16,1,1,48 } };
const ALIGN(16) float tensor_data24[96*1*1*16] = { 
  /* [0][0][][] */ 0.20407813787460327,0.093176096677780151,0.015408974140882492,0.30627289414405823,-0.3895011842250824,-0.1115499809384346,0.2875237762928009,0.17772114276885986,0.18340930342674255,0.3627888560295105,-0.017287164926528931,0.24090355634689331,0.033915601670742035,-0.056953921914100647,0.095476686954498291,0.25612258911132812, 
  /* [1][0][][] */ -0.06266089528799057,0.047072317451238632,-0.19754050672054291,-4.2004910937976092e-05,0.26742032170295715,0.23470743000507355,0.024112006649374962,0.055233485996723175,-0.099266164004802704,0.024573281407356262,-0.16770780086517334,0.082118898630142212,-0.14425630867481232,0.25557780265808105,-0.14171335101127625,-0.079300522804260254, 
  /* [2][0][][] */ -0.13942189514636993,0.1957472562789917,0.27272161841392517,-0.052680790424346924,0.22007103264331818,0.30233702063560486,0.0088433912023901939,0.14819636940956116,0.12276127189397812,-0.01919880136847496,0.10925700515508652,-0.048313859850168228,0.15551625192165375,-0.43630310893058777,-0.030842673033475876,0.038569916039705276, 
  /* [3][0][][] */ 0.54696637392044067,-0.13388934731483459,0.054969877004623413,0.05385197326540947,0.14564408361911774,0.16195264458656311,-0.027495011687278748,0.06160251796245575,0.096296854317188263,0.12585738301277161,-0.32942149043083191,-0.18538680672645569,-0.1526065468788147,0.19033607840538025,-0.27790930867195129,0.22503148019313812, 
  /* [4][0][][] */ -0.2569068968296051,0.047635581344366074,-0.026880107820034027,-0.033144313842058182,-0.41986092925071716,0.019140863791108131,-0.20033122599124908,-0.19101734459400177,-0.11085496097803116,0.12660489976406097,-0.052082613110542297,-0.22799696028232574,-0.075730711221694946,0.048302486538887024,-0.073244132101535797,0.42883378267288208, 
  /* [5][0][][] */ -0.15464992821216583,0.068091593682765961,0.058548599481582642,0.051187358796596527,0.18336927890777588,0.013438667170703411,0.034444089978933334,0.024758137762546539,-0.086176939308643341,0.034384973347187042,-0.034933757036924362,0.059714753180742264,-0.061576876789331436,0.082722492516040802,-0.071119934320449829,-0.020891427993774414, 
  /* [6][0][][] */ -0.38551443815231323,0.093963906168937683,-0.14847232401371002,0.11061196029186249,-0.04499300941824913,-0.18748804926872253,0.23246650397777557,0.031018611043691635,0.039762094616889954,-0.12418731302022934,-0.14296703040599823,0.069818191230297089,0.023828748613595963,0.0061014560051262379,-0.15648344159126282,0.059698589146137238, 
  /* [7][0][][] */ -0.042240791022777557,0.21191591024398804,0.12396752834320068,-0.18675908446311951,0.21255150437355042,0.06344306468963623,0.40393427014350891,0.12409234791994095,0.035242095589637756,0.055216904729604721,0.021082554012537003,0.1321043074131012,0.37895157933235168,0.13922290503978729,-0.078902125358581543,0.024144651368260384, 
  /* [8][0][][] */ 0.00018045450269710273,-0.052387822419404984,-0.10904678702354431,0.092569060623645782,-0.093824237585067749,0.10497049242258072,-0.092691756784915924,-0.10900676250457764,0.089377492666244507,-0.029608834534883499,0.14350296556949615,0.095464356243610382,0.18570820987224579,0.05240977555513382,-0.17307332158088684,-0.027930842712521553, 
  /* [9][0][][] */ -0.067643672227859497,-0.25824660062789917,-0.080873996019363403,0.24358025193214417,-0.088445417582988739,-0.17214173078536987,0.005043435376137495,0.20839859545230865,0.065145216882228851,0.12507709860801697,0.079813480377197266,0.17900076508522034,-0.21541327238082886,0.053376942873001099,0.012743462808430195,-0.051118627190589905, 
  /* [10][0][][] */ -0.031612850725650787,-0.054420173168182373,-0.066037572920322418,0.033846881240606308,-0.15095984935760498,0.088800974190235138,0.067516602575778961,-0.036734018474817276,0.076018959283828735,-0.082082279026508331,0.061597462743520737,-0.073016367852687836,0.025667652487754822,0.12405224144458771,-0.06470191478729248,0.047809533774852753, 
  /* [11][0][][] */ -0.089590407907962799,-0.30154365301132202,-0.1175820529460907,0.099266588687896729,0.095983438193798065,0.28307387232780457,0.040515303611755371,-0.011875784955918789,-0.022405514493584633,0.14064399898052216,0.090090237557888031,-0.22080701589584351,0.055914908647537231,0.28306493163108826,-0.3492894172668457,0.2712080180644989, 
  /* [12][0][][] */ -0.081986136734485626,-0.17137381434440613,-0.18941539525985718,0.26336106657981873,-0.22432354092597961,-0.24921651184558868,0.07731270045042038,0.19516387581825256,0.14776374399662018,0.079409599304199219,-0.041519556194543839,0.16132456064224243,-0.053797967731952667,-0.11028927564620972,-0.054680846631526947,0.021049352362751961, 
  /* [13][0][][] */ -0.4053117036819458,-0.21483242511749268,-0.15871718525886536,-0.016019094735383987,-0.019344212487339973,-0.0082279341295361519,0.23887299001216888,0.17777435481548309,-0.033721026033163071,1.0690796375274658,0.056464806199073792,-0.012061918154358864,0.43553200364112854,0.28311961889266968,0.20654650032520294,-0.19724656641483307, 
  /* [14][0][][] */ -0.28903862833976746,-0.048139449208974838,-0.094840481877326965,-0.093145705759525299,-0.095630042254924774,0.19169668853282928,-0.08569847047328949,-0.26524704694747925,0.2646203339099884,-0.16698907315731049,0.19070599973201752,-0.053783528506755829,0.11311810463666916,-0.17756693065166473,-0.16961255669593811,-0.18076194822788239, 
  /* [15][0][][] */ -0.0024148640222847462,-0.31941869854927063,0.21250912547111511,-0.13704311847686768,-0.14132192730903625,-0.083960510790348053,-0.0066224937327206135,0.12726472318172455,0.063379697501659393,-0.11930529773235321,-0.20206902921199799,-0.092802874743938446,0.15775425732135773,-0.10362397879362106,-0.046967286616563797,-0.1094534620642662, 
  /* [16][0][][] */ -0.051624011248350143,-0.077456250786781311,0.090303197503089905,-0.10445187985897064,0.11143337190151215,0.061468508094549179,-0.080470539629459381,-0.10865046083927155,0.22487056255340576,-0.39887064695358276,0.12411420792341232,-0.072445414960384369,-0.0035436328034847975,-0.030162181705236435,-0.26273196935653687,-0.32426655292510986, 
  /* [17][0][][] */ -0.035576056689023972,0.054288964718580246,0.072629287838935852,-0.18496373295783997,0.056488379836082458,-0.036612283438444138,-0.071395136415958405,0.048642300069332123,0.23168860375881195,-0.17132128775119781,0.094286784529685974,0.22079439461231232,0.30851876735687256,-0.21268025040626526,-0.045203842222690582,-0.26511269807815552, 
  /* [18][0][][] */ 0.20677381753921509,0.093296416103839874,-0.21107147634029388,-0.58761250972747803,0.011074495501816273,-0.070815123617649078,0.53218275308609009,-0.22554004192352295,0.10379716753959656,0.16715024411678314,-0.086521908640861511,0.28474909067153931,0.013748208992183208,0.26214742660522461,-0.054087381809949875,-0.41258123517036438, 
  /* [19][0][][] */ -0.12875491380691528,-0.098298929631710052,-0.0086931847035884857,-0.12130795419216156,-0.16199705004692078,0.13314291834831238,-0.0719127357006073,0.031976040452718735,0.12587134540081024,-0.089996680617332458,0.055398385971784592,-0.24807019531726837,-0.054386675357818604,-0.040714763104915619,-0.088125832378864288,-0.011848375201225281, 
  /* [20][0][][] */ 0.10560318827629089,0.60378098487854004,0.54932951927185059,-0.63073211908340454,0.40433210134506226,-0.045455578714609146,-0.33710306882858276,0.45088335871696472,-0.61642354726791382,-0.75587469339370728,0.22148086130619049,-0.51508694887161255,-0.3227522075176239,0.50624608993530273,-0.098604381084442139,-0.026960836723446846, 
  /* [21][0][][] */ 0.029153347015380859,-0.083365485072135925,-0.19086109101772308,0.030827665701508522,0.065189935266971588,-0.011155689135193825,0.13112838566303253,0.14196556806564331,-0.11316529661417007,-0.14856815338134766,0.0036369671579450369,-0.0052834288217127323,0.14887429773807526,-0.2074129581451416,-0.046428818255662918,-0.010628988966345787, 
  /* [22][0][][] */ 0.14364294707775116,-0.01380979735404253,0.29160299897193909,-0.01919553242623806,0.063001289963722229,0.01044832356274128,0.21528756618499756,0.078916028141975403,0.0028409075457602739,0.40081772208213806,0.036889061331748962,0.046604607254266739,0.028310490772128105,0.0035529816523194313,0.2775399386882782,-0.049138050526380539, 
  /* [23][0][][] */ -0.43637940287590027,-0.24922093749046326,-0.11861579865217209,0.19541016221046448,0.15726418793201447,0.14045272767543793,0.067906461656093597,0.0053768469952046871,-0.093814246356487274,0.06129826232790947,-0.090089686214923859,-0.43142378330230713,0.018014248460531235,0.023789627477526665,0.24341176450252533,0.30359607934951782, 
  /* [24][0][][] */ 0.029020395129919052,-0.018484210595488548,0.035369906574487686,0.072433739900588989,0.016854029148817062,-0.16279895603656769,-0.0063150092028081417,-0.099330924451351166,0.013084881007671356,0.21573260426521301,-0.18241214752197266,0.12418453395366669,-0.055635392665863037,-0.10043640434741974,0.12337007373571396,-0.096360139548778534, 
  /* [25][0][][] */ 0.24492371082305908,-0.19610309600830078,0.21379548311233521,0.35710784792900085,0.14515054225921631,-0.041099775582551956,-0.043397914618253708,0.15098738670349121,-0.36348268389701843,0.18752448260784149,0.16561327874660492,-0.16161014139652252,-0.1163681223988533,0.070357978343963623,0.23325547575950623,-0.0059007788076996803, 
  /* [26][0][][] */ -0.11063747853040695,0.06859443336725235,0.024586047977209091,0.18559391796588898,-0.21543118357658386,0.52239894866943359,-0.052542775869369507,0.13875292241573334,-0.25972700119018555,-0.17379750311374664,-0.34384176135063171,0.1176002249121666,0.040398776531219482,0.098773494362831116,0.18374088406562805,-0.54064095020294189, 
  /* [27][0][][] */ 0.21352556347846985,-0.0041792439296841621,0.010132284834980965,-0.24554309248924255,-0.24818931519985199,-0.022147210314869881,-0.46747106313705444,0.025962112471461296,-0.42998525500297546,-0.081431165337562561,-0.33248499035835266,-0.22274114191532135,-0.42913630604743958,0.25058838725090027,-0.12207373231649399,0.61690694093704224, 
